%YAML:1.0
opencv_ml_rtrees:
   format: 3
   is_classifier: 1
   var_all: 7
   var_count: 6
   ord_var_count: 6
   cat_var_count: 1
   training_params:
      use_surrogates: 0
      max_categories: 10
      regression_accuracy: 0.
      max_depth: 25
      min_sample_count: 1815
      cross_validation_folds: 0
      nactive_vars: 3
   global_var_idx: 1
   var_idx: [ 0, 1, 2, 3, 4, 5 ]
   var_type: [ 0, 0, 0, 0, 0, 0, 1 ]
   cat_ofs: [ 0, 0, 0, 0, 0, 0, 0, 0, 0, 0, 0, 0 ]
   class_labels: [ 2, 3, 4, 5 ]
   missing_subst: [ 0., 0., 0., 0., 0., 0., 0. ]
   oob_error: 0.
   ntrees: 30
   trees:
      -
         nodes:
            -
               depth: 0
               value: 2.
               norm_class_idx: 0
               splits:
                  - { var:0, quality:2.6779246875000000e+05,
                      le:2.1651196479797363e+00 }
            -
               depth: 1
               value: 2.
               norm_class_idx: 0
               splits:
                  - { var:0, quality:2.6924650000000000e+05,
                      le:1.0976470708847046e+00 }
            -
               depth: 2
               value: 2.
               norm_class_idx: 0
               splits:
                  - { var:3, quality:1.3893162109375000e+04,
                      le:1.7792932689189911e-02 }
            -
               depth: 3
               value: 5.
               norm_class_idx: 3
               splits:
                  - { var:3, quality:4.8986791992187500e+03,
                      le:3.7797277327626944e-03 }
            -
               depth: 4
               value: 4.
               norm_class_idx: 2
               splits:
                  - { var:1, quality:2.5103894042968750e+03,
                      le:1.0057914257049561e+00 }
            -
               depth: 5
               value: 2.
               norm_class_idx: 0
            -
               depth: 5
               value: 4.
               norm_class_idx: 2
               splits:
                  - { var:1, quality:2.2582915039062500e+03,
                      le:1.0059998035430908e+00 }
            -
               depth: 6
               value: 4.
               norm_class_idx: 2
            -
               depth: 6
               value: 4.
               norm_class_idx: 2
               splits:
                  - { var:3, quality:2.2455065917968750e+03,
                      le:2.2495854645967484e-03 }
            -
               depth: 7
               value: 4.
               norm_class_idx: 2
            -
               depth: 7
               value: 4.
               norm_class_idx: 2
            -
               depth: 4
               value: 5.
               norm_class_idx: 3
               splits:
                  - { var:2, quality:3.1641323242187500e+03,
                      le:1.0094647407531738e+00 }
            -
               depth: 5
               value: 5.
               norm_class_idx: 3
               splits:
                  - { var:1, quality:1.9210802001953125e+03,
                      le:9.9865162372589111e-01 }
            -
               depth: 6
               value: 5.
               norm_class_idx: 3
            -
               depth: 6
               value: 2.
               norm_class_idx: 0
               splits:
                  - { var:1, quality:1.0104718627929688e+03,
                      le:1.0062930583953857e+00 }
            -
               depth: 7
               value: 2.
               norm_class_idx: 0
               splits:
                  - { var:2, quality:1.0228883666992188e+03,
                      le:1.0033259391784668e+00 }
            -
               depth: 8
               value: 2.
               norm_class_idx: 0
            -
               depth: 8
               value: 2.
               norm_class_idx: 0
               splits:
                  - { var:0, quality:8.7103094482421875e+02,
                      le:1.0141315460205078e+00 }
            -
               depth: 9
               value: 5.
               norm_class_idx: 3
            -
               depth: 9
               value: 2.
               norm_class_idx: 0
            -
               depth: 7
               value: 4.
               norm_class_idx: 2
            -
               depth: 5
               value: 5.
               norm_class_idx: 3
               splits:
                  - { var:4, quality:1.5295764160156250e+03,
                      le:3.9007288217544556e-01 }
            -
               depth: 6
               value: 5.
               norm_class_idx: 3
               splits:
                  - { var:4, quality:1.1583742675781250e+03,
                      le:-4.4827625155448914e-01 }
            -
               depth: 7
               value: 5.
               norm_class_idx: 3
            -
               depth: 7
               value: 5.
               norm_class_idx: 3
               splits:
                  - { var:0, quality:9.4275140380859375e+02,
                      le:1.0382175445556641e+00 }
            -
               depth: 8
               value: 5.
               norm_class_idx: 3
            -
               depth: 8
               value: 5.
               norm_class_idx: 3
            -
               depth: 6
               value: 5.
               norm_class_idx: 3
            -
               depth: 3
               value: 3.
               norm_class_idx: 1
               splits:
                  - { var:3, quality:1.2205743164062500e+04,
                      le:4.2648386210203171e-02 }
            -
               depth: 4
               value: 3.
               norm_class_idx: 1
               splits:
                  - { var:2, quality:7.7064824218750000e+03,
                      le:1.0073652267456055e+00 }
            -
               depth: 5
               value: 2.
               norm_class_idx: 0
               splits:
                  - { var:1, quality:1.1701226806640625e+03,
                      le:9.9308484792709351e-01 }
            -
               depth: 6
               value: 2.
               norm_class_idx: 0
               splits:
                  - { var:0, quality:8.9319677734375000e+02,
                      le:1.0405522584915161e+00 }
            -
               depth: 7
               value: 2.
               norm_class_idx: 0
            -
               depth: 7
               value: 2.
               norm_class_idx: 0
            -
               depth: 6
               value: 3.
               norm_class_idx: 1
            -
               depth: 5
               value: 3.
               norm_class_idx: 1
               splits:
                  - { var:3, quality:6.8932597656250000e+03,
                      le:3.0413933098316193e-02 }
            -
               depth: 6
               value: 3.
               norm_class_idx: 1
               splits:
                  - { var:1, quality:3.3933955078125000e+03,
                      le:1.0072810649871826e+00 }
            -
               depth: 7
               value: 3.
               norm_class_idx: 1
               splits:
                  - { var:4, quality:2.7772717285156250e+03,
                      le:9.8386287689208984e-01 }
            -
               depth: 8
               value: 3.
               norm_class_idx: 1
               splits:
                  - { var:1, quality:2.7444985351562500e+03,
                      le:9.9396455287933350e-01 }
            -
               depth: 9
               value: 3.
               norm_class_idx: 1
            -
               depth: 9
               value: 3.
               norm_class_idx: 1
               splits:
                  - { var:5, quality:2.5559294433593750e+03,
                      le:3.6605072021484375e-01 }
            -
               depth: 10
               value: 3.
               norm_class_idx: 1
               splits:
                  - { var:2, quality:2.2827209472656250e+03,
                      le:1.0376548767089844e+00 }
            -
               depth: 11
               value: 3.
               norm_class_idx: 1
               splits:
                  - { var:4, quality:2.2754865722656250e+03,
                      le:3.4628331661224365e-02 }
            -
               depth: 12
               value: 3.
               norm_class_idx: 1
               splits:
                  - { var:2, quality:1.0924223632812500e+03,
                      le:1.0151777267456055e+00 }
            -
               depth: 13
               value: 3.
               norm_class_idx: 1
            -
               depth: 13
               value: 3.
               norm_class_idx: 1
            -
               depth: 12
               value: 3.
               norm_class_idx: 1
               splits:
                  - { var:5, quality:1.2044383544921875e+03,
                      le:-3.6977136135101318e-01 }
            -
               depth: 13
               value: 3.
               norm_class_idx: 1
            -
               depth: 13
               value: 3.
               norm_class_idx: 1
            -
               depth: 11
               value: 5.
               norm_class_idx: 3
            -
               depth: 10
               value: 3.
               norm_class_idx: 1
            -
               depth: 8
               value: 3.
               norm_class_idx: 1
            -
               depth: 7
               value: 3.
               norm_class_idx: 1
            -
               depth: 6
               value: 3.
               norm_class_idx: 1
               splits:
                  - { var:2, quality:3.6411884765625000e+03,
                      le:1.0134825706481934e+00 }
            -
               depth: 7
               value: 2.
               norm_class_idx: 0
            -
               depth: 7
               value: 3.
               norm_class_idx: 1
               splits:
                  - { var:1, quality:3.0840251464843750e+03,
                      le:9.9184280633926392e-01 }
            -
               depth: 8
               value: 2.
               norm_class_idx: 0
            -
               depth: 8
               value: 3.
               norm_class_idx: 1
               splits:
                  - { var:5, quality:2.8766032714843750e+03,
                      le:-8.5003077983856201e-01 }
            -
               depth: 9
               value: 3.
               norm_class_idx: 1
            -
               depth: 9
               value: 3.
               norm_class_idx: 1
               splits:
                  - { var:1, quality:2.2811621093750000e+03,
                      le:1.0073761940002441e+00 }
            -
               depth: 10
               value: 3.
               norm_class_idx: 1
               splits:
                  - { var:5, quality:1.7375527343750000e+03,
                      le:3.6598525047302246e+00 }
            -
               depth: 11
               value: 3.
               norm_class_idx: 1
               splits:
                  - { var:2, quality:1.7312659912109375e+03,
                      le:1.0180130004882812e+00 }
            -
               depth: 12
               value: 3.
               norm_class_idx: 1
            -
               depth: 12
               value: 3.
               norm_class_idx: 1
               splits:
                  - { var:0, quality:1.3715343017578125e+03,
                      le:1.0823491811752319e+00 }
            -
               depth: 13
               value: 3.
               norm_class_idx: 1
               splits:
                  - { var:0, quality:1.1201884765625000e+03,
                      le:1.0796375274658203e+00 }
            -
               depth: 14
               value: 3.
               norm_class_idx: 1
               splits:
                  - { var:2, quality:9.9907269287109375e+02,
                      le:1.0182905197143555e+00 }
            -
               depth: 15
               value: 3.
               norm_class_idx: 1
            -
               depth: 15
               value: 3.
               norm_class_idx: 1
               splits:
                  - { var:0, quality:9.6076574707031250e+02,
                      le:1.0506978034973145e+00 }
            -
               depth: 16
               value: 3.
               norm_class_idx: 1
            -
               depth: 16
               value: 3.
               norm_class_idx: 1
            -
               depth: 14
               value: 3.
               norm_class_idx: 1
            -
               depth: 13
               value: 3.
               norm_class_idx: 1
            -
               depth: 11
               value: 2.
               norm_class_idx: 0
            -
               depth: 10
               value: 3.
               norm_class_idx: 1
            -
               depth: 4
               value: 2.
               norm_class_idx: 0
               splits:
                  - { var:3, quality:4.9469575195312500e+03,
                      le:5.0067029893398285e-02 }
            -
               depth: 5
               value: 2.
               norm_class_idx: 0
               splits:
                  - { var:4, quality:1.9037875976562500e+03,
                      le:-6.3569134473800659e-01 }
            -
               depth: 6
               value: 3.
               norm_class_idx: 1
            -
               depth: 6
               value: 2.
               norm_class_idx: 0
               splits:
                  - { var:2, quality:1.7803148193359375e+03,
                      le:1.0291111469268799e+00 }
            -
               depth: 7
               value: 2.
               norm_class_idx: 0
               splits:
                  - { var:3, quality:1.3823796386718750e+03,
                      le:4.5473814010620117e-02 }
            -
               depth: 8
               value: 2.
               norm_class_idx: 0
            -
               depth: 8
               value: 2.
               norm_class_idx: 0
            -
               depth: 7
               value: 3.
               norm_class_idx: 1
            -
               depth: 5
               value: 2.
               norm_class_idx: 0
               splits:
                  - { var:2, quality:3.1558552246093750e+03,
                      le:1.0291724205017090e+00 }
            -
               depth: 6
               value: 2.
               norm_class_idx: 0
               splits:
                  - { var:4, quality:2.4950397949218750e+03,
                      le:-6.9058990478515625e-01 }
            -
               depth: 7
               value: 2.
               norm_class_idx: 0
            -
               depth: 7
               value: 2.
               norm_class_idx: 0
               splits:
                  - { var:2, quality:2.2878195800781250e+03,
                      le:1.0235753059387207e+00 }
            -
               depth: 8
               value: 2.
               norm_class_idx: 0
               splits:
                  - { var:0, quality:1.9151325683593750e+03,
                      le:1.0474278926849365e+00 }
            -
               depth: 9
               value: 3.
               norm_class_idx: 1
            -
               depth: 9
               value: 2.
               norm_class_idx: 0
               splits:
                  - { var:0, quality:1.9154060058593750e+03,
                      le:1.0840754508972168e+00 }
            -
               depth: 10
               value: 2.
               norm_class_idx: 0
            -
               depth: 10
               value: 2.
               norm_class_idx: 0
            -
               depth: 8
               value: 2.
               norm_class_idx: 0
            -
               depth: 6
               value: 2.
               norm_class_idx: 0
            -
               depth: 2
               value: 2.
               norm_class_idx: 0
               splits:
                  - { var:2, quality:2.6218650000000000e+05,
                      le:1.3578805923461914e+00 }
            -
               depth: 3
               value: 2.
               norm_class_idx: 0
               splits:
                  - { var:0, quality:2.4048003125000000e+05,
                      le:1.1435819864273071e+00 }
            -
               depth: 4
               value: 2.
               norm_class_idx: 0
               splits:
                  - { var:3, quality:1.4256879882812500e+04,
                      le:5.2471719682216644e-02 }
            -
               depth: 5
               value: 2.
               norm_class_idx: 0
               splits:
                  - { var:1, quality:2.0913596191406250e+03,
                      le:9.9478304386138916e-01 }
            -
               depth: 6
               value: 2.
               norm_class_idx: 0
            -
               depth: 6
               value: 2.
               norm_class_idx: 0
               splits:
                  - { var:2, quality:1.6145899658203125e+03,
                      le:1.0150609016418457e+00 }
            -
               depth: 7
               value: 2.
               norm_class_idx: 0
            -
               depth: 7
               value: 2.
               norm_class_idx: 0
               splits:
                  - { var:4, quality:1.4917984619140625e+03,
                      le:1.6065183877944946e+00 }
            -
               depth: 8
               value: 2.
               norm_class_idx: 0
               splits:
                  - { var:5, quality:1.4905112304687500e+03,
                      le:2.2820693254470825e-01 }
            -
               depth: 9
               value: 2.
               norm_class_idx: 0
               splits:
                  - { var:0, quality:9.7664349365234375e+02,
                      le:1.1095640659332275e+00 }
            -
               depth: 10
               value: 2.
               norm_class_idx: 0
            -
               depth: 10
               value: 2.
               norm_class_idx: 0
            -
               depth: 9
               value: 2.
               norm_class_idx: 0
            -
               depth: 8
               value: 5.
               norm_class_idx: 3
            -
               depth: 5
               value: 2.
               norm_class_idx: 0
               splits:
                  - { var:1, quality:1.2350135742187500e+04,
                      le:9.9485898017883301e-01 }
            -
               depth: 6
               value: 2.
               norm_class_idx: 0
               splits:
                  - { var:3, quality:6.9691054687500000e+03,
                      le:5.8949917554855347e-02 }
            -
               depth: 7
               value: 2.
               norm_class_idx: 0
            -
               depth: 7
               value: 2.
               norm_class_idx: 0
               splits:
                  - { var:5, quality:6.3786074218750000e+03,
                      le:1.0563250780105591e+00 }
            -
               depth: 8
               value: 2.
               norm_class_idx: 0
               splits:
                  - { var:4, quality:6.2374003906250000e+03,
                      le:-5.4367923736572266e-01 }
            -
               depth: 9
               value: 2.
               norm_class_idx: 0
            -
               depth: 9
               value: 2.
               norm_class_idx: 0
               splits:
                  - { var:0, quality:5.6845356445312500e+03,
                      le:1.1423649787902832e+00 }
            -
               depth: 10
               value: 2.
               norm_class_idx: 0
               splits:
                  - { var:3, quality:5.5309697265625000e+03,
                      le:7.3794871568679810e-02 }
            -
               depth: 11
               value: 2.
               norm_class_idx: 0
               splits:
                  - { var:4, quality:2.4542705078125000e+03,
                      le:-5.0672525167465210e-01 }
            -
               depth: 12
               value: 2.
               norm_class_idx: 0
            -
               depth: 12
               value: 2.
               norm_class_idx: 0
               splits:
                  - { var:2, quality:2.4582460937500000e+03,
                      le:1.0566513538360596e+00 }
            -
               depth: 13
               value: 2.
               norm_class_idx: 0
               splits:
                  - { var:3, quality:2.4506892089843750e+03,
                      le:7.3790036141872406e-02 }
            -
               depth: 14
               value: 2.
               norm_class_idx: 0
               splits:
                  - { var:4, quality:2.4510654296875000e+03,
                      le:8.4509789943695068e-01 }
            -
               depth: 15
               value: 2.
               norm_class_idx: 0
               splits:
                  - { var:4, quality:2.4465895996093750e+03,
                      le:-2.7598714828491211e-01 }
            -
               depth: 16
               value: 2.
               norm_class_idx: 0
            -
               depth: 16
               value: 2.
               norm_class_idx: 0
               splits:
                  - { var:2, quality:2.2918950195312500e+03,
                      le:1.0523118972778320e+00 }
            -
               depth: 17
               value: 2.
               norm_class_idx: 0
               splits:
                  - { var:2, quality:2.2820119628906250e+03,
                      le:1.0243942737579346e+00 }
            -
               depth: 18
               value: 2.
               norm_class_idx: 0
            -
               depth: 18
               value: 2.
               norm_class_idx: 0
            -
               depth: 17
               value: 2.
               norm_class_idx: 0
            -
               depth: 15
               value: 2.
               norm_class_idx: 0
            -
               depth: 14
               value: 5.
               norm_class_idx: 3
            -
               depth: 13
               value: 3.
               norm_class_idx: 1
            -
               depth: 11
               value: 2.
               norm_class_idx: 0
               splits:
                  - { var:2, quality:3.0814191894531250e+03,
                      le:1.0461906194686890e+00 }
            -
               depth: 12
               value: 2.
               norm_class_idx: 0
               splits:
                  - { var:2, quality:2.2027316894531250e+03,
                      le:1.0090472698211670e+00 }
            -
               depth: 13
               value: 2.
               norm_class_idx: 0
            -
               depth: 13
               value: 2.
               norm_class_idx: 0
               splits:
                  - { var:3, quality:2.0358629150390625e+03,
                      le:7.9908639192581177e-02 }
            -
               depth: 14
               value: 2.
               norm_class_idx: 0
            -
               depth: 14
               value: 2.
               norm_class_idx: 0
            -
               depth: 12
               value: 2.
               norm_class_idx: 0
            -
               depth: 10
               value: 2.
               norm_class_idx: 0
            -
               depth: 8
               value: 2.
               norm_class_idx: 0
            -
               depth: 6
               value: 2.
               norm_class_idx: 0
               splits:
                  - { var:4, quality:5.4445229492187500e+03,
                      le:-1.2068927288055420e+00 }
            -
               depth: 7
               value: 3.
               norm_class_idx: 1
            -
               depth: 7
               value: 2.
               norm_class_idx: 0
               splits:
                  - { var:5, quality:5.4187270507812500e+03,
                      le:-6.9494092464447021e-01 }
            -
               depth: 8
               value: 2.
               norm_class_idx: 0
               splits:
                  - { var:0, quality:2.5763471679687500e+03,
                      le:1.1255571842193604e+00 }
            -
               depth: 9
               value: 2.
               norm_class_idx: 0
               splits:
                  - { var:3, quality:1.3103243408203125e+03,
                      le:6.3125811517238617e-02 }
            -
               depth: 10
               value: 2.
               norm_class_idx: 0
            -
               depth: 10
               value: 2.
               norm_class_idx: 0
            -
               depth: 9
               value: 2.
               norm_class_idx: 0
            -
               depth: 8
               value: 2.
               norm_class_idx: 0
               splits:
                  - { var:2, quality:2.8969294433593750e+03,
                      le:1.0491654872894287e+00 }
            -
               depth: 9
               value: 2.
               norm_class_idx: 0
               splits:
                  - { var:0, quality:2.2478664550781250e+03,
                      le:1.1435564756393433e+00 }
            -
               depth: 10
               value: 2.
               norm_class_idx: 0
               splits:
                  - { var:5, quality:2.2500678710937500e+03,
                      le:4.0396317839622498e-01 }
            -
               depth: 11
               value: 2.
               norm_class_idx: 0
               splits:
                  - { var:3, quality:2.0397753906250000e+03,
                      le:6.0666915029287338e-02 }
            -
               depth: 12
               value: 2.
               norm_class_idx: 0
            -
               depth: 12
               value: 2.
               norm_class_idx: 0
            -
               depth: 11
               value: 2.
               norm_class_idx: 0
            -
               depth: 10
               value: 3.
               norm_class_idx: 1
            -
               depth: 9
               value: 2.
               norm_class_idx: 0
            -
               depth: 4
               value: 2.
               norm_class_idx: 0
               splits:
                  - { var:5, quality:2.2682659375000000e+05,
                      le:9.5643925666809082e-01 }
            -
               depth: 5
               value: 2.
               norm_class_idx: 0
               splits:
                  - { var:3, quality:2.1012128125000000e+05,
                      le:1.0307618230581284e-01 }
            -
               depth: 6
               value: 2.
               norm_class_idx: 0
               splits:
                  - { var:2, quality:1.8518478515625000e+04,
                      le:1.0468696355819702e+00 }
            -
               depth: 7
               value: 2.
               norm_class_idx: 0
               splits:
                  - { var:1, quality:1.0055584960937500e+04,
                      le:9.4079792499542236e-01 }
            -
               depth: 8
               value: 2.
               norm_class_idx: 0
            -
               depth: 8
               value: 2.
               norm_class_idx: 0
               splits:
                  - { var:4, quality:1.0056111328125000e+04,
                      le:-3.1527709960937500e-01 }
            -
               depth: 9
               value: 2.
               norm_class_idx: 0
            -
               depth: 9
               value: 2.
               norm_class_idx: 0
               splits:
                  - { var:5, quality:9.5217675781250000e+03,
                      le:-2.4346102774143219e-01 }
            -
               depth: 10
               value: 2.
               norm_class_idx: 0
               splits:
                  - { var:2, quality:5.2547280273437500e+03,
                      le:1.0442061424255371e+00 }
            -
               depth: 11
               value: 2.
               norm_class_idx: 0
               splits:
                  - { var:5, quality:4.8578974609375000e+03,
                      le:-4.4997012615203857e-01 }
            -
               depth: 12
               value: 2.
               norm_class_idx: 0
               splits:
                  - { var:4, quality:3.6175524902343750e+03,
                      le:2.9364323616027832e-01 }
            -
               depth: 13
               value: 2.
               norm_class_idx: 0
               splits:
                  - { var:1, quality:2.3844643554687500e+03,
                      le:9.5766460895538330e-01 }
            -
               depth: 14
               value: 3.
               norm_class_idx: 1
            -
               depth: 14
               value: 2.
               norm_class_idx: 0
               splits:
                  - { var:4, quality:2.3873347167968750e+03,
                      le:2.9317453503608704e-01 }
            -
               depth: 15
               value: 2.
               norm_class_idx: 0
               splits:
                  - { var:3, quality:2.3857158203125000e+03,
                      le:1.0191708803176880e-01 }
            -
               depth: 16
               value: 2.
               norm_class_idx: 0
               splits:
                  - { var:0, quality:2.2933774414062500e+03,
                      le:1.1613614559173584e+00 }
            -
               depth: 17
               value: 2.
               norm_class_idx: 0
            -
               depth: 17
               value: 2.
               norm_class_idx: 0
            -
               depth: 16
               value: 2.
               norm_class_idx: 0
            -
               depth: 15
               value: 3.
               norm_class_idx: 1
            -
               depth: 13
               value: 2.
               norm_class_idx: 0
            -
               depth: 12
               value: 2.
               norm_class_idx: 0
            -
               depth: 11
               value: 2.
               norm_class_idx: 0
            -
               depth: 10
               value: 2.
               norm_class_idx: 0
               splits:
                  - { var:5, quality:4.2736630859375000e+03,
                      le:-2.4312710762023926e-01 }
            -
               depth: 11
               value: 3.
               norm_class_idx: 1
            -
               depth: 11
               value: 2.
               norm_class_idx: 0
               splits:
                  - { var:3, quality:4.2732709960937500e+03,
                      le:9.2491596937179565e-02 }
            -
               depth: 12
               value: 2.
               norm_class_idx: 0
               splits:
                  - { var:3, quality:3.4424104003906250e+03,
                      le:9.2475444078445435e-02 }
            -
               depth: 13
               value: 2.
               norm_class_idx: 0
               splits:
                  - { var:4, quality:3.4405092773437500e+03,
                      le:-1.7696517705917358e-01 }
            -
               depth: 14
               value: 2.
               norm_class_idx: 0
            -
               depth: 14
               value: 2.
               norm_class_idx: 0
               splits:
                  - { var:0, quality:3.2854511718750000e+03,
                      le:1.1552217006683350e+00 }
            -
               depth: 15
               value: 2.
               norm_class_idx: 0
            -
               depth: 15
               value: 2.
               norm_class_idx: 0
               splits:
                  - { var:2, quality:2.6721462402343750e+03,
                      le:9.9810671806335449e-01 }
            -
               depth: 16
               value: 2.
               norm_class_idx: 0
            -
               depth: 16
               value: 2.
               norm_class_idx: 0
               splits:
                  - { var:3, quality:2.6676533203125000e+03,
                      le:9.2384457588195801e-02 }
            -
               depth: 17
               value: 2.
               norm_class_idx: 0
               splits:
                  - { var:1, quality:2.6617475585937500e+03,
                      le:9.9812805652618408e-01 }
            -
               depth: 18
               value: 2.
               norm_class_idx: 0
            -
               depth: 18
               value: 2.
               norm_class_idx: 0
            -
               depth: 17
               value: 2.
               norm_class_idx: 0
            -
               depth: 13
               value: 3.
               norm_class_idx: 1
            -
               depth: 12
               value: 2.
               norm_class_idx: 0
            -
               depth: 7
               value: 2.
               norm_class_idx: 0
               splits:
                  - { var:4, quality:8.4896054687500000e+03,
                      le:5.3243792057037354e-01 }
            -
               depth: 8
               value: 2.
               norm_class_idx: 0
               splits:
                  - { var:1, quality:7.1935874023437500e+03,
                      le:1.0063421726226807e+00 }
            -
               depth: 9
               value: 2.
               norm_class_idx: 0
               splits:
                  - { var:2, quality:3.2367814941406250e+03,
                      le:1.0468778610229492e+00 }
            -
               depth: 10
               value: 5.
               norm_class_idx: 3
            -
               depth: 10
               value: 2.
               norm_class_idx: 0
               splits:
                  - { var:3, quality:3.2380935058593750e+03,
                      le:6.2804669141769409e-02 }
            -
               depth: 11
               value: 3.
               norm_class_idx: 1
            -
               depth: 11
               value: 2.
               norm_class_idx: 0
               splits:
                  - { var:4, quality:3.2374770507812500e+03,
                      le:-5.0788033008575439e-01 }
            -
               depth: 12
               value: 2.
               norm_class_idx: 0
            -
               depth: 12
               value: 2.
               norm_class_idx: 0
               splits:
                  - { var:2, quality:3.1257370605468750e+03,
                      le:1.0499131679534912e+00 }
            -
               depth: 13
               value: 2.
               norm_class_idx: 0
            -
               depth: 13
               value: 2.
               norm_class_idx: 0
               splits:
                  - { var:3, quality:2.6891403808593750e+03,
                      le:9.0145111083984375e-02 }
            -
               depth: 14
               value: 2.
               norm_class_idx: 0
            -
               depth: 14
               value: 2.
               norm_class_idx: 0
               splits:
                  - { var:0, quality:1.8347071533203125e+03,
                      le:1.2150516510009766e+00 }
            -
               depth: 15
               value: 2.
               norm_class_idx: 0
            -
               depth: 15
               value: 2.
               norm_class_idx: 0
            -
               depth: 9
               value: 2.
               norm_class_idx: 0
               splits:
                  - { var:2, quality:3.9830837402343750e+03,
                      le:1.1140596866607666e+00 }
            -
               depth: 10
               value: 2.
               norm_class_idx: 0
               splits:
                  - { var:2, quality:3.1114899902343750e+03,
                      le:1.1097030639648438e+00 }
            -
               depth: 11
               value: 2.
               norm_class_idx: 0
               splits:
                  - { var:0, quality:3.0830373535156250e+03,
                      le:1.1519086360931396e+00 }
            -
               depth: 12
               value: 2.
               norm_class_idx: 0
            -
               depth: 12
               value: 2.
               norm_class_idx: 0
               splits:
                  - { var:3, quality:2.8731816406250000e+03,
                      le:9.3119665980339050e-02 }
            -
               depth: 13
               value: 2.
               norm_class_idx: 0
               splits:
                  - { var:0, quality:1.6887193603515625e+03,
                      le:1.1666371822357178e+00 }
            -
               depth: 14
               value: 2.
               norm_class_idx: 0
            -
               depth: 14
               value: 2.
               norm_class_idx: 0
            -
               depth: 13
               value: 2.
               norm_class_idx: 0
            -
               depth: 11
               value: 2.
               norm_class_idx: 0
            -
               depth: 10
               value: 2.
               norm_class_idx: 0
            -
               depth: 8
               value: 2.
               norm_class_idx: 0
               splits:
                  - { var:3, quality:1.3445712890625000e+03,
                      le:6.7120067775249481e-02 }
            -
               depth: 9
               value: 2.
               norm_class_idx: 0
            -
               depth: 9
               value: 2.
               norm_class_idx: 0
            -
               depth: 6
               value: 2.
               norm_class_idx: 0
               splits:
                  - { var:2, quality:1.9183576562500000e+05,
                      le:1.2787606716156006e+00 }
            -
               depth: 7
               value: 2.
               norm_class_idx: 0
               splits:
                  - { var:2, quality:1.8116382812500000e+05,
                      le:1.2272125482559204e+00 }
            -
               depth: 8
               value: 2.
               norm_class_idx: 0
               splits:
                  - { var:3, quality:1.6651265625000000e+05,
                      le:1.1816255748271942e-01 }
            -
               depth: 9
               value: 2.
               norm_class_idx: 0
               splits:
                  - { var:2, quality:1.1277600585937500e+04,
                      le:1.1893230676651001e+00 }
            -
               depth: 10
               value: 2.
               norm_class_idx: 0
               splits:
                  - { var:4, quality:1.1274473632812500e+04,
                      le:7.9856526851654053e-01 }
            -
               depth: 11
               value: 2.
               norm_class_idx: 0
               splits:
                  - { var:0, quality:1.0894130859375000e+04,
                      le:1.2685297727584839e+00 }
            -
               depth: 12
               value: 2.
               norm_class_idx: 0
               splits:
                  - { var:0, quality:9.6930839843750000e+03,
                      le:1.1788870096206665e+00 }
            -
               depth: 13
               value: 2.
               norm_class_idx: 0
               splits:
                  - { var:3, quality:2.1610339355468750e+03,
                      le:1.1813335120677948e-01 }
            -
               depth: 14
               value: 2.
               norm_class_idx: 0
               splits:
                  - { var:4, quality:2.1600642089843750e+03,
                      le:1.2056303769350052e-01 }
            -
               depth: 15
               value: 2.
               norm_class_idx: 0
               splits:
                  - { var:1, quality:1.9870567626953125e+03,
                      le:9.9513524770736694e-01 }
            -
               depth: 16
               value: 2.
               norm_class_idx: 0
            -
               depth: 16
               value: 2.
               norm_class_idx: 0
            -
               depth: 15
               value: 2.
               norm_class_idx: 0
            -
               depth: 14
               value: 2.
               norm_class_idx: 0
            -
               depth: 13
               value: 2.
               norm_class_idx: 0
               splits:
                  - { var:1, quality:7.5340073242187500e+03,
                      le:1.0052781105041504e+00 }
            -
               depth: 14
               value: 2.
               norm_class_idx: 0
               splits:
                  - { var:4, quality:5.0139970703125000e+03,
                      le:-9.5209693908691406e-01 }
            -
               depth: 15
               value: 3.
               norm_class_idx: 1
            -
               depth: 15
               value: 2.
               norm_class_idx: 0
               splits:
                  - { var:0, quality:5.0156943359375000e+03,
                      le:1.1790990829467773e+00 }
            -
               depth: 16
               value: 2.
               norm_class_idx: 0
            -
               depth: 16
               value: 2.
               norm_class_idx: 0
               splits:
                  - { var:4, quality:5.0100932617187500e+03,
                      le:-1.3021022081375122e-01 }
            -
               depth: 17
               value: 2.
               norm_class_idx: 0
            -
               depth: 17
               value: 2.
               norm_class_idx: 0
               splits:
                  - { var:1, quality:4.1772836914062500e+03,
                      le:9.8359137773513794e-01 }
            -
               depth: 18
               value: 2.
               norm_class_idx: 0
            -
               depth: 18
               value: 2.
               norm_class_idx: 0
               splits:
                  - { var:5, quality:3.2186040039062500e+03,
                      le:-7.3972678184509277e-01 }
            -
               depth: 19
               value: 2.
               norm_class_idx: 0
            -
               depth: 19
               value: 2.
               norm_class_idx: 0
               splits:
                  - { var:0, quality:2.0441334228515625e+03,
                      le:1.1983406543731689e+00 }
            -
               depth: 20
               value: 2.
               norm_class_idx: 0
            -
               depth: 20
               value: 2.
               norm_class_idx: 0
               splits:
                  - { var:5, quality:1.9010600585937500e+03,
                      le:3.9891722798347473e-01 }
            -
               depth: 21
               value: 2.
               norm_class_idx: 0
            -
               depth: 21
               value: 2.
               norm_class_idx: 0
            -
               depth: 14
               value: 2.
               norm_class_idx: 0
               splits:
                  - { var:1, quality:2.5238400878906250e+03,
                      le:1.0052933692932129e+00 }
            -
               depth: 15
               value: 3.
               norm_class_idx: 1
            -
               depth: 15
               value: 2.
               norm_class_idx: 0
               splits:
                  - { var:4, quality:2.5239069824218750e+03,
                      le:-5.6926971673965454e-01 }
            -
               depth: 16
               value: 2.
               norm_class_idx: 0
            -
               depth: 16
               value: 2.
               norm_class_idx: 0
               splits:
                  - { var:2, quality:2.3313154296875000e+03,
                      le:1.1024594306945801e+00 }
            -
               depth: 17
               value: 2.
               norm_class_idx: 0
            -
               depth: 17
               value: 2.
               norm_class_idx: 0
            -
               depth: 12
               value: 2.
               norm_class_idx: 0
            -
               depth: 11
               value: 2.
               norm_class_idx: 0
            -
               depth: 10
               value: 3.
               norm_class_idx: 1
            -
               depth: 9
               value: 2.
               norm_class_idx: 0
               splits:
                  - { var:1, quality:1.5525609375000000e+05,
                      le:9.5095145702362061e-01 }
            -
               depth: 10
               value: 2.
               norm_class_idx: 0
            -
               depth: 10
               value: 2.
               norm_class_idx: 0
               splits:
                  - { var:5, quality:1.5433554687500000e+05,
                      le:-5.7009285688400269e-01 }
            -
               depth: 11
               value: 2.
               norm_class_idx: 0
               splits:
                  - { var:2, quality:9.9004117187500000e+04,
                      le:1.1401779651641846e+00 }
            -
               depth: 12
               value: 2.
               norm_class_idx: 0
               splits:
                  - { var:3, quality:7.6020398437500000e+04,
                      le:1.5910801291465759e-01 }
            -
               depth: 13
               value: 2.
               norm_class_idx: 0
               splits:
                  - { var:4, quality:2.0346792968750000e+04,
                      le:6.7538797855377197e-01 }
            -
               depth: 14
               value: 2.
               norm_class_idx: 0
               splits:
                  - { var:2, quality:2.0285023437500000e+04,
                      le:1.1015970706939697e+00 }
            -
               depth: 15
               value: 2.
               norm_class_idx: 0
               splits:
                  - { var:4, quality:1.5849078125000000e+04,
                      le:5.8790647983551025e-01 }
            -
               depth: 16
               value: 2.
               norm_class_idx: 0
               splits:
                  - { var:2, quality:1.5727037109375000e+04,
                      le:1.0632946491241455e+00 }
            -
               depth: 17
               value: 2.
               norm_class_idx: 0
               splits:
                  - { var:2, quality:4.5060073242187500e+03,
                      le:1.0632901191711426e+00 }
            -
               depth: 18
               value: 2.
               norm_class_idx: 0
               splits:
                  - { var:0, quality:4.5010180664062500e+03,
                      le:1.2294137477874756e+00 }
            -
               depth: 19
               value: 2.
               norm_class_idx: 0
            -
               depth: 19
               value: 2.
               norm_class_idx: 0
            -
               depth: 18
               value: 5.
               norm_class_idx: 3
            -
               depth: 17
               value: 2.
               norm_class_idx: 0
               splits:
                  - { var:5, quality:1.1231015625000000e+04,
                      le:-5.8321774005889893e-01 }
            -
               depth: 18
               value: 2.
               norm_class_idx: 0
               splits:
                  - { var:0, quality:1.1095008789062500e+04,
                      le:1.2995035648345947e+00 }
            -
               depth: 19
               value: 2.
               norm_class_idx: 0
            -
               depth: 19
               value: 2.
               norm_class_idx: 0
            -
               depth: 18
               value: 2.
               norm_class_idx: 0
            -
               depth: 16
               value: 2.
               norm_class_idx: 0
            -
               depth: 15
               value: 2.
               norm_class_idx: 0
               splits:
                  - { var:3, quality:4.4379643554687500e+03,
                      le:1.5908925235271454e-01 }
            -
               depth: 16
               value: 2.
               norm_class_idx: 0
               splits:
                  - { var:2, quality:4.4466059570312500e+03,
                      le:1.1016510725021362e+00 }
            -
               depth: 17
               value: 2.
               norm_class_idx: 0
            -
               depth: 17
               value: 2.
               norm_class_idx: 0
               splits:
                  - { var:2, quality:4.4386547851562500e+03,
                      le:1.1027309894561768e+00 }
            -
               depth: 18
               value: 2.
               norm_class_idx: 0
            -
               depth: 18
               value: 2.
               norm_class_idx: 0
               splits:
                  - { var:1, quality:4.2105703125000000e+03,
                      le:9.6862393617630005e-01 }
            -
               depth: 19
               value: 2.
               norm_class_idx: 0
            -
               depth: 19
               value: 2.
               norm_class_idx: 0
               splits:
                  - { var:1, quality:4.1122900390625000e+03,
                      le:9.8393988609313965e-01 }
            -
               depth: 20
               value: 2.
               norm_class_idx: 0
            -
               depth: 20
               value: 2.
               norm_class_idx: 0
               splits:
                  - { var:0, quality:3.3920822753906250e+03,
                      le:1.2093465328216553e+00 }
            -
               depth: 21
               value: 2.
               norm_class_idx: 0
            -
               depth: 21
               value: 2.
               norm_class_idx: 0
               splits:
                  - { var:4, quality:2.9800371093750000e+03,
                      le:4.9802058935165405e-01 }
            -
               depth: 22
               value: 2.
               norm_class_idx: 0
               splits:
                  - { var:4, quality:2.9240085449218750e+03,
                      le:6.9133594632148743e-02 }
            -
               depth: 23
               value: 2.
               norm_class_idx: 0
            -
               depth: 23
               value: 2.
               norm_class_idx: 0
            -
               depth: 22
               value: 2.
               norm_class_idx: 0
            -
               depth: 16
               value: 3.
               norm_class_idx: 1
            -
               depth: 14
               value: 2.
               norm_class_idx: 0
            -
               depth: 13
               value: 2.
               norm_class_idx: 0
               splits:
                  - { var:1, quality:5.5674039062500000e+04,
                      le:9.5661151409149170e-01 }
            -
               depth: 14
               value: 2.
               norm_class_idx: 0
            -
               depth: 14
               value: 2.
               norm_class_idx: 0
               splits:
                  - { var:2, quality:5.5338761718750000e+04,
                      le:1.0161101818084717e+00 }
            -
               depth: 15
               value: 2.
               norm_class_idx: 0
            -
               depth: 15
               value: 2.
               norm_class_idx: 0
               splits:
                  - { var:4, quality:5.5320019531250000e+04,
                      le:-2.6285561919212341e-01 }
            -
               depth: 16
               value: 2.
               norm_class_idx: 0
               splits:
                  - { var:0, quality:4.9950698242187500e+03,
                      le:1.3966407775878906e+00 }
            -
               depth: 17
               value: 2.
               norm_class_idx: 0
               splits:
                  - { var:4, quality:4.7360004882812500e+03,
                      le:-2.6294499635696411e-01 }
            -
               depth: 18
               value: 2.
               norm_class_idx: 0
               splits:
                  - { var:1, quality:4.7340014648437500e+03,
                      le:1.0062625408172607e+00 }
            -
               depth: 19
               value: 2.
               norm_class_idx: 0
            -
               depth: 19
               value: 2.
               norm_class_idx: 0
            -
               depth: 18
               value: 3.
               norm_class_idx: 1
            -
               depth: 17
               value: 2.
               norm_class_idx: 0
            -
               depth: 16
               value: 2.
               norm_class_idx: 0
               splits:
                  - { var:1, quality:5.0325015625000000e+04,
                      le:1.0118956565856934e+00 }
            -
               depth: 17
               value: 2.
               norm_class_idx: 0
               splits:
                  - { var:5, quality:3.8302015625000000e+04,
                      le:-5.7714819908142090e-01 }
            -
               depth: 18
               value: 2.
               norm_class_idx: 0
               splits:
                  - { var:5, quality:3.8155003906250000e+04,
                      le:-9.8776650428771973e-01 }
            -
               depth: 19
               value: 2.
               norm_class_idx: 0
            -
               depth: 19
               value: 2.
               norm_class_idx: 0
               splits:
                  - { var:5, quality:1.4220000976562500e+04,
                      le:-9.8773372173309326e-01 }
            -
               depth: 20
               value: 3.
               norm_class_idx: 1
            -
               depth: 20
               value: 2.
               norm_class_idx: 0
               splits:
                  - { var:4, quality:1.4218009765625000e+04,
                      le:6.5543961524963379e-01 }
            -
               depth: 21
               value: 2.
               norm_class_idx: 0
               splits:
                  - { var:1, quality:1.4004001953125000e+04,
                      le:1.0083110332489014e+00 }
            -
               depth: 22
               value: 2.
               norm_class_idx: 0
               splits:
                  - { var:5, quality:1.2843000976562500e+04,
                      le:-6.7473798990249634e-01 }
            -
               depth: 23
               value: 2.
               norm_class_idx: 0
            -
               depth: 23
               value: 2.
               norm_class_idx: 0
               splits:
                  - { var:5, quality:2240., le:-6.7467284202575684e-01 }
            -
               depth: 24
               value: 5.
               norm_class_idx: 3
            -
               depth: 24
               value: 2.
               norm_class_idx: 0
            -
               depth: 22
               value: 2.
               norm_class_idx: 0
            -
               depth: 21
               value: 2.
               norm_class_idx: 0
            -
               depth: 18
               value: 2.
               norm_class_idx: 0
            -
               depth: 17
               value: 2.
               norm_class_idx: 0
               splits:
                  - { var:0, quality:1.2023031250000000e+04,
                      le:1.4938119649887085e+00 }
            -
               depth: 18
               value: 2.
               norm_class_idx: 0
               splits:
                  - { var:4, quality:6.8800117187500000e+03,
                      le:4.8924246430397034e-01 }
            -
               depth: 19
               value: 2.
               norm_class_idx: 0
            -
               depth: 19
               value: 2.
               norm_class_idx: 0
            -
               depth: 18
               value: 2.
               norm_class_idx: 0
               splits:
                  - { var:1, quality:5.1450249023437500e+03,
                      le:1.0118980407714844e+00 }
            -
               depth: 19
               value: 5.
               norm_class_idx: 3
            -
               depth: 19
               value: 2.
               norm_class_idx: 0
               splits:
                  - { var:1, quality:5.1440654296875000e+03,
                      le:1.0153117179870605e+00 }
            -
               depth: 20
               value: 2.
               norm_class_idx: 0
            -
               depth: 20
               value: 2.
               norm_class_idx: 0
               splits:
                  - { var:4, quality:4.6070170898437500e+03,
                      le:1.0394862294197083e-01 }
            -
               depth: 21
               value: 2.
               norm_class_idx: 0
               splits:
                  - { var:0, quality:1.8661033935546875e+03,
                      le:1.4949963092803955e+00 }
            -
               depth: 22
               value: 2.
               norm_class_idx: 0
            -
               depth: 22
               value: 2.
               norm_class_idx: 0
            -
               depth: 21
               value: 2.
               norm_class_idx: 0
            -
               depth: 12
               value: 2.
               norm_class_idx: 0
               splits:
                  - { var:3, quality:2.2984666015625000e+04,
                      le:1.6059334576129913e-01 }
            -
               depth: 13
               value: 2.
               norm_class_idx: 0
               splits:
                  - { var:2, quality:2.6359631347656250e+03,
                      le:1.1408653259277344e+00 }
            -
               depth: 14
               value: 2.
               norm_class_idx: 0
            -
               depth: 14
               value: 2.
               norm_class_idx: 0
               splits:
                  - { var:4, quality:2.6237546386718750e+03,
                      le:2.6634052395820618e-01 }
            -
               depth: 15
               value: 2.
               norm_class_idx: 0
               splits:
                  - { var:3, quality:2.2972224121093750e+03,
                      le:1.3614812493324280e-01 }
            -
               depth: 16
               value: 2.
               norm_class_idx: 0
            -
               depth: 16
               value: 2.
               norm_class_idx: 0
               splits:
                  - { var:2, quality:1.8082454833984375e+03,
                      le:1.1922427415847778e+00 }
            -
               depth: 17
               value: 2.
               norm_class_idx: 0
            -
               depth: 17
               value: 2.
               norm_class_idx: 0
            -
               depth: 15
               value: 2.
               norm_class_idx: 0
            -
               depth: 13
               value: 2.
               norm_class_idx: 0
               splits:
                  - { var:2, quality:2.0359392578125000e+04,
                      le:1.1401942968368530e+00 }
            -
               depth: 14
               value: 3.
               norm_class_idx: 1
            -
               depth: 14
               value: 2.
               norm_class_idx: 0
               splits:
                  - { var:3, quality:2.0357593750000000e+04,
                      le:2.5560349225997925e-01 }
            -
               depth: 15
               value: 2.
               norm_class_idx: 0
               splits:
                  - { var:2, quality:1.2468072265625000e+04,
                      le:1.1403790712356567e+00 }
            -
               depth: 16
               value: 2.
               norm_class_idx: 0
            -
               depth: 16
               value: 2.
               norm_class_idx: 0
               splits:
                  - { var:1, quality:1.2439385742187500e+04,
                      le:1.0408899784088135e+00 }
            -
               depth: 17
               value: 2.
               norm_class_idx: 0
               splits:
                  - { var:3, quality:1.1604264648437500e+04,
                      le:2.5559705495834351e-01 }
            -
               depth: 18
               value: 2.
               norm_class_idx: 0
               splits:
                  - { var:4, quality:1.1603651367187500e+04,
                      le:7.4023956060409546e-01 }
            -
               depth: 19
               value: 2.
               norm_class_idx: 0
               splits:
                  - { var:2, quality:1.1600454101562500e+04,
                      le:1.2216656208038330e+00 }
            -
               depth: 20
               value: 2.
               norm_class_idx: 0
               splits:
                  - { var:1, quality:1.1074898437500000e+04,
                      le:9.5994842052459717e-01 }
            -
               depth: 21
               value: 2.
               norm_class_idx: 0
            -
               depth: 21
               value: 2.
               norm_class_idx: 0
               splits:
                  - { var:4, quality:1.1051322265625000e+04,
                      le:6.3692551851272583e-01 }
            -
               depth: 22
               value: 2.
               norm_class_idx: 0
               splits:
                  - { var:1, quality:1.1018198242187500e+04,
                      le:9.8973464965820312e-01 }
            -
               depth: 23
               value: 2.
               norm_class_idx: 0
            -
               depth: 23
               value: 2.
               norm_class_idx: 0
               splits:
                  - { var:3, quality:9.7540683593750000e+03,
                      le:1.6134876012802124e-01 }
            -
               depth: 24
               value: 2.
               norm_class_idx: 0
            -
               depth: 24
               value: 2.
               norm_class_idx: 0
               splits:
                  - { var:1, quality:9.6920654296875000e+03,
                      le:1.0028183460235596e+00 }
            -
               depth: 25
               value: 2.
               norm_class_idx: 0
            -
               depth: 25
               value: 2.
               norm_class_idx: 0
            -
               depth: 22
               value: 2.
               norm_class_idx: 0
            -
               depth: 20
               value: 2.
               norm_class_idx: 0
            -
               depth: 19
               value: 2.
               norm_class_idx: 0
            -
               depth: 18
               value: 4.
               norm_class_idx: 2
            -
               depth: 17
               value: 2.
               norm_class_idx: 0
            -
               depth: 15
               value: 2.
               norm_class_idx: 0
               splits:
                  - { var:1, quality:7.8900239257812500e+03,
                      le:9.7480601072311401e-01 }
            -
               depth: 16
               value: 2.
               norm_class_idx: 0
            -
               depth: 16
               value: 2.
               norm_class_idx: 0
               splits:
                  - { var:0, quality:7.5540009765625000e+03,
                      le:1.5198519229888916e+00 }
            -
               depth: 17
               value: 2.
               norm_class_idx: 0
               splits:
                  - { var:0, quality:1945., le:1.5197196006774902e+00 }
            -
               depth: 18
               value: 2.
               norm_class_idx: 0
            -
               depth: 18
               value: 4.
               norm_class_idx: 2
            -
               depth: 17
               value: 2.
               norm_class_idx: 0
            -
               depth: 11
               value: 2.
               norm_class_idx: 0
               splits:
                  - { var:3, quality:5.5334128906250000e+04,
                      le:1.4372304081916809e-01 }
            -
               depth: 12
               value: 2.
               norm_class_idx: 0
               splits:
                  - { var:2, quality:1.0501079101562500e+04,
                      le:1.1822990179061890e+00 }
            -
               depth: 13
               value: 2.
               norm_class_idx: 0
               splits:
                  - { var:3, quality:1.0437787109375000e+04,
                      le:1.4371773600578308e-01 }
            -
               depth: 14
               value: 2.
               norm_class_idx: 0
               splits:
                  - { var:4, quality:1.0437125976562500e+04,
                      le:7.8958714008331299e-01 }
            -
               depth: 15
               value: 2.
               norm_class_idx: 0
               splits:
                  - { var:2, quality:9.6734462890625000e+03,
                      le:1.0976109504699707e+00 }
            -
               depth: 16
               value: 2.
               norm_class_idx: 0
               splits:
                  - { var:3, quality:6.6695922851562500e+03,
                      le:1.1880330741405487e-01 }
            -
               depth: 17
               value: 2.
               norm_class_idx: 0
            -
               depth: 17
               value: 2.
               norm_class_idx: 0
               splits:
                  - { var:2, quality:6.4893134765625000e+03,
                      le:1.0303578376770020e+00 }
            -
               depth: 18
               value: 2.
               norm_class_idx: 0
            -
               depth: 18
               value: 2.
               norm_class_idx: 0
               splits:
                  - { var:4, quality:6.1593945312500000e+03,
                      le:-8.8979089260101318e-01 }
            -
               depth: 19
               value: 2.
               norm_class_idx: 0
            -
               depth: 19
               value: 2.
               norm_class_idx: 0
               splits:
                  - { var:1, quality:6.1071083984375000e+03,
                      le:9.8451340198516846e-01 }
            -
               depth: 20
               value: 2.
               norm_class_idx: 0
            -
               depth: 20
               value: 2.
               norm_class_idx: 0
               splits:
                  - { var:1, quality:4.7380957031250000e+03,
                      le:9.8453563451766968e-01 }
            -
               depth: 21
               value: 3.
               norm_class_idx: 1
            -
               depth: 21
               value: 2.
               norm_class_idx: 0
               splits:
                  - { var:0, quality:4.7371303710937500e+03,
                      le:1.2703026533126831e+00 }
            -
               depth: 22
               value: 2.
               norm_class_idx: 0
               splits:
                  - { var:0, quality:1.8100209960937500e+03,
                      le:1.2701210975646973e+00 }
            -
               depth: 23
               value: 2.
               norm_class_idx: 0
            -
               depth: 23
               value: 3.
               norm_class_idx: 1
            -
               depth: 22
               value: 2.
               norm_class_idx: 0
               splits:
                  - { var:4, quality:2.9390605468750000e+03,
                      le:5.2991235256195068e-01 }
            -
               depth: 23
               value: 2.
               norm_class_idx: 0
            -
               depth: 23
               value: 2.
               norm_class_idx: 0
            -
               depth: 16
               value: 2.
               norm_class_idx: 0
               splits:
                  - { var:3, quality:3.0065847167968750e+03,
                      le:1.1988157033920288e-01 }
            -
               depth: 17
               value: 2.
               norm_class_idx: 0
            -
               depth: 17
               value: 2.
               norm_class_idx: 0
               splits:
                  - { var:2, quality:2.9043842773437500e+03,
                      le:1.0976676940917969e+00 }
            -
               depth: 18
               value: 3.
               norm_class_idx: 1
            -
               depth: 18
               value: 2.
               norm_class_idx: 0
               splits:
                  - { var:4, quality:2.8949333496093750e+03,
                      le:-4.4255864620208740e-01 }
            -
               depth: 19
               value: 2.
               norm_class_idx: 0
            -
               depth: 19
               value: 2.
               norm_class_idx: 0
               splits:
                  - { var:4, quality:2.2187419433593750e+03,
                      le:-4.4211071729660034e-01 }
            -
               depth: 20
               value: 3.
               norm_class_idx: 1
            -
               depth: 20
               value: 2.
               norm_class_idx: 0
               splits:
                  - { var:2, quality:2.2174392089843750e+03,
                      le:1.1093953847885132e+00 }
            -
               depth: 21
               value: 2.
               norm_class_idx: 0
            -
               depth: 21
               value: 2.
               norm_class_idx: 0
            -
               depth: 15
               value: 2.
               norm_class_idx: 0
            -
               depth: 14
               value: 3.
               norm_class_idx: 1
            -
               depth: 13
               value: 2.
               norm_class_idx: 0
            -
               depth: 12
               value: 2.
               norm_class_idx: 0
               splits:
                  - { var:2, quality:4.4853195312500000e+04,
                      le:1.1882545948028564e+00 }
            -
               depth: 13
               value: 2.
               norm_class_idx: 0
               splits:
                  - { var:4, quality:3.8176218750000000e+04,
                      le:1.1905450820922852e+00 }
            -
               depth: 14
               value: 2.
               norm_class_idx: 0
               splits:
                  - { var:1, quality:3.8135992187500000e+04,
                      le:9.7600364685058594e-01 }
            -
               depth: 15
               value: 2.
               norm_class_idx: 0
               splits:
                  - { var:1, quality:2.8910422363281250e+03,
                      le:9.7600156068801880e-01 }
            -
               depth: 16
               value: 2.
               norm_class_idx: 0
               splits:
                  - { var:5, quality:2.8896369628906250e+03,
                      le:1.3466112315654755e-01 }
            -
               depth: 17
               value: 2.
               norm_class_idx: 0
               splits:
                  - { var:5, quality:2.0432663574218750e+03,
                      le:-4.3369057774543762e-01 }
            -
               depth: 18
               value: 2.
               norm_class_idx: 0
            -
               depth: 18
               value: 2.
               norm_class_idx: 0
            -
               depth: 17
               value: 2.
               norm_class_idx: 0
            -
               depth: 16
               value: 3.
               norm_class_idx: 1
            -
               depth: 15
               value: 2.
               norm_class_idx: 0
               splits:
                  - { var:5, quality:3.5252835937500000e+04,
                      le:-5.7005894184112549e-01 }
            -
               depth: 16
               value: 4.
               norm_class_idx: 2
            -
               depth: 16
               value: 2.
               norm_class_idx: 0
               splits:
                  - { var:4, quality:3.5251007812500000e+04,
                      le:5.9664821624755859e-01 }
            -
               depth: 17
               value: 2.
               norm_class_idx: 0
               splits:
                  - { var:5, quality:2.6344517578125000e+04,
                      le:8.1647294759750366e-01 }
            -
               depth: 18
               value: 2.
               norm_class_idx: 0
               splits:
                  - { var:3, quality:2.5920468750000000e+04,
                      le:1.6042281687259674e-01 }
            -
               depth: 19
               value: 2.
               norm_class_idx: 0
               splits:
                  - { var:3, quality:4.9662182617187500e+03,
                      le:1.6041755676269531e-01 }
            -
               depth: 20
               value: 2.
               norm_class_idx: 0
               splits:
                  - { var:0, quality:4.9653203125000000e+03,
                      le:1.3750505447387695e+00 }
            -
               depth: 21
               value: 2.
               norm_class_idx: 0
               splits:
                  - { var:0, quality:4.3212202148437500e+03,
                      le:1.2158825397491455e+00 }
            -
               depth: 22
               value: 2.
               norm_class_idx: 0
            -
               depth: 22
               value: 2.
               norm_class_idx: 0
               splits:
                  - { var:5, quality:4.1072153320312500e+03,
                      le:6.8953263759613037e-01 }
            -
               depth: 23
               value: 2.
               norm_class_idx: 0
               splits:
                  - { var:2, quality:4.0290944824218750e+03,
                      le:1.0976252555847168e+00 }
            -
               depth: 24
               value: 2.
               norm_class_idx: 0
               splits:
                  - { var:4, quality:2.2150144042968750e+03,
                      le:-5.3730690479278564e-01 }
            -
               depth: 25
               value: 2.
               norm_class_idx: 0
            -
               depth: 25
               value: 2.
               norm_class_idx: 0
            -
               depth: 24
               value: 2.
               norm_class_idx: 0
               splits:
                  - { var:4, quality:1.8142164306640625e+03,
                      le:2.3542907834053040e-01 }
            -
               depth: 25
               value: 2.
               norm_class_idx: 0
            -
               depth: 25
               value: 2.
               norm_class_idx: 0
            -
               depth: 23
               value: 2.
               norm_class_idx: 0
            -
               depth: 21
               value: 2.
               norm_class_idx: 0
            -
               depth: 20
               value: 4.
               norm_class_idx: 2
            -
               depth: 19
               value: 2.
               norm_class_idx: 0
               splits:
                  - { var:5, quality:2.0956292968750000e+04,
                      le:-8.1316672265529633e-02 }
            -
               depth: 20
               value: 2.
               norm_class_idx: 0
               splits:
                  - { var:3, quality:1.3771089843750000e+04,
                      le:2.2142265737056732e-01 }
            -
               depth: 21
               value: 2.
               norm_class_idx: 0
               splits:
                  - { var:2, quality:8.7761376953125000e+03,
                      le:1.1368141174316406e+00 }
            -
               depth: 22
               value: 2.
               norm_class_idx: 0
               splits:
                  - { var:3, quality:6.1290117187500000e+03,
                      le:2.2138622403144836e-01 }
            -
               depth: 23
               value: 2.
               norm_class_idx: 0
               splits:
                  - { var:3, quality:6.1270639648437500e+03,
                      le:2.1914392709732056e-01 }
            -
               depth: 24
               value: 2.
               norm_class_idx: 0
               splits:
                  - { var:4, quality:5.9950122070312500e+03,
                      le:1.2699583172798157e-01 }
            -
               depth: 25
               value: 2.
               norm_class_idx: 0
            -
               depth: 25
               value: 2.
               norm_class_idx: 0
            -
               depth: 24
               value: 2.
               norm_class_idx: 0
            -
               depth: 23
               value: 5.
               norm_class_idx: 3
            -
               depth: 22
               value: 2.
               norm_class_idx: 0
               splits:
                  - { var:2, quality:2.6550947265625000e+03,
                      le:1.1368478536605835e+00 }
            -
               depth: 23
               value: 3.
               norm_class_idx: 1
            -
               depth: 23
               value: 2.
               norm_class_idx: 0
               splits:
                  - { var:4, quality:2.6532609863281250e+03,
                      le:-1.4842997305095196e-02 }
            -
               depth: 24
               value: 2.
               norm_class_idx: 0
            -
               depth: 24
               value: 2.
               norm_class_idx: 0
            -
               depth: 21
               value: 2.
               norm_class_idx: 0
               splits:
                  - { var:2, quality:4.9950043945312500e+03,
                      le:1.1457455158233643e+00 }
            -
               depth: 22
               value: 2.
               norm_class_idx: 0
            -
               depth: 22
               value: 2.
               norm_class_idx: 0
            -
               depth: 20
               value: 2.
               norm_class_idx: 0
               splits:
                  - { var:5, quality:7.1931728515625000e+03,
                      le:-8.1089563667774200e-02 }
            -
               depth: 21
               value: 5.
               norm_class_idx: 3
            -
               depth: 21
               value: 2.
               norm_class_idx: 0
               splits:
                  - { var:2, quality:7.1892924804687500e+03,
                      le:1.0381827354431152e+00 }
            -
               depth: 22
               value: 2.
               norm_class_idx: 0
            -
               depth: 22
               value: 2.
               norm_class_idx: 0
               splits:
                  - { var:0, quality:7.1372363281250000e+03,
                      le:1.6657919883728027e+00 }
            -
               depth: 23
               value: 2.
               norm_class_idx: 0
               splits:
                  - { var:2, quality:6.4001137695312500e+03,
                      le:1.0858659744262695e+00 }
            -
               depth: 24
               value: 2.
               norm_class_idx: 0
            -
               depth: 24
               value: 2.
               norm_class_idx: 0
               splits:
                  - { var:3, quality:5.3390551757812500e+03,
                      le:1.7328965663909912e-01 }
            -
               depth: 25
               value: 2.
               norm_class_idx: 0
            -
               depth: 25
               value: 2.
               norm_class_idx: 0
            -
               depth: 23
               value: 2.
               norm_class_idx: 0
            -
               depth: 18
               value: 2.
               norm_class_idx: 0
            -
               depth: 17
               value: 2.
               norm_class_idx: 0
               splits:
                  - { var:2, quality:8.9073291015625000e+03,
                      le:1.1708788871765137e+00 }
            -
               depth: 18
               value: 2.
               norm_class_idx: 0
               splits:
                  - { var:4, quality:8.0951752929687500e+03,
                      le:5.9669649600982666e-01 }
            -
               depth: 19
               value: 4.
               norm_class_idx: 2
            -
               depth: 19
               value: 2.
               norm_class_idx: 0
               splits:
                  - { var:1, quality:8.0934453125000000e+03,
                      le:9.8312807083129883e-01 }
            -
               depth: 20
               value: 2.
               norm_class_idx: 0
            -
               depth: 20
               value: 2.
               norm_class_idx: 0
               splits:
                  - { var:2, quality:7.5061650390625000e+03,
                      le:1.1207315921783447e+00 }
            -
               depth: 21
               value: 2.
               norm_class_idx: 0
            -
               depth: 21
               value: 2.
               norm_class_idx: 0
               splits:
                  - { var:3, quality:3.1067849121093750e+03,
                      le:1.5202909708023071e-01 }
            -
               depth: 22
               value: 2.
               norm_class_idx: 0
            -
               depth: 22
               value: 2.
               norm_class_idx: 0
               splits:
                  - { var:5, quality:3.0451081542968750e+03,
                      le:4.7102355957031250e-01 }
            -
               depth: 23
               value: 2.
               norm_class_idx: 0
               splits:
                  - { var:0, quality:2.1871623535156250e+03,
                      le:1.4074997901916504e+00 }
            -
               depth: 24
               value: 2.
               norm_class_idx: 0
            -
               depth: 24
               value: 2.
               norm_class_idx: 0
               splits:
                  - { var:0, quality:2.1020197753906250e+03,
                      le:1.4412937164306641e+00 }
            -
               depth: 25
               value: 2.
               norm_class_idx: 0
            -
               depth: 25
               value: 2.
               norm_class_idx: 0
            -
               depth: 23
               value: 2.
               norm_class_idx: 0
            -
               depth: 18
               value: 2.
               norm_class_idx: 0
            -
               depth: 14
               value: 2.
               norm_class_idx: 0
            -
               depth: 13
               value: 2.
               norm_class_idx: 0
               splits:
                  - { var:2, quality:6.6894291992187500e+03,
                      le:1.1882576942443848e+00 }
            -
               depth: 14
               value: 4.
               norm_class_idx: 2
            -
               depth: 14
               value: 2.
               norm_class_idx: 0
               splits:
                  - { var:1, quality:6.6862822265625000e+03,
                      le:9.5469844341278076e-01 }
            -
               depth: 15
               value: 2.
               norm_class_idx: 0
            -
               depth: 15
               value: 2.
               norm_class_idx: 0
               splits:
                  - { var:1, quality:6.6850014648437500e+03,
                      le:1.1055736541748047e+00 }
            -
               depth: 16
               value: 2.
               norm_class_idx: 0
               splits:
                  - { var:0, quality:6.6667211914062500e+03,
                      le:1.3698438405990601e+00 }
            -
               depth: 17
               value: 2.
               norm_class_idx: 0
            -
               depth: 17
               value: 2.
               norm_class_idx: 0
               splits:
                  - { var:0, quality:5.4235639648437500e+03,
                      le:1.5581258535385132e+00 }
            -
               depth: 18
               value: 2.
               norm_class_idx: 0
               splits:
                  - { var:4, quality:2.9547568359375000e+03,
                      le:9.2371451854705811e-01 }
            -
               depth: 19
               value: 2.
               norm_class_idx: 0
               splits:
                  - { var:5, quality:2.9231882324218750e+03,
                      le:8.2306265830993652e-01 }
            -
               depth: 20
               value: 2.
               norm_class_idx: 0
               splits:
                  - { var:3, quality:2.8632177734375000e+03,
                      le:1.8823388218879700e-01 }
            -
               depth: 21
               value: 2.
               norm_class_idx: 0
            -
               depth: 21
               value: 2.
               norm_class_idx: 0
               splits:
                  - { var:3, quality:2.3470297851562500e+03,
                      le:3.1010425090789795e-01 }
            -
               depth: 22
               value: 2.
               norm_class_idx: 0
               splits:
                  - { var:5, quality:2.2800083007812500e+03,
                      le:3.7232539057731628e-01 }
            -
               depth: 23
               value: 2.
               norm_class_idx: 0
            -
               depth: 23
               value: 2.
               norm_class_idx: 0
            -
               depth: 22
               value: 2.
               norm_class_idx: 0
            -
               depth: 20
               value: 2.
               norm_class_idx: 0
            -
               depth: 19
               value: 2.
               norm_class_idx: 0
            -
               depth: 18
               value: 2.
               norm_class_idx: 0
               splits:
                  - { var:4, quality:2.4697668457031250e+03,
                      le:3.0464217066764832e-01 }
            -
               depth: 19
               value: 2.
               norm_class_idx: 0
            -
               depth: 19
               value: 2.
               norm_class_idx: 0
            -
               depth: 16
               value: 2.
               norm_class_idx: 0
            -
               depth: 8
               value: 2.
               norm_class_idx: 0
               splits:
                  - { var:3, quality:1.4704401367187500e+04,
                      le:1.6614726185798645e-01 }
            -
               depth: 9
               value: 2.
               norm_class_idx: 0
            -
               depth: 9
               value: 2.
               norm_class_idx: 0
               splits:
                  - { var:2, quality:1.4590523437500000e+04,
                      le:1.2272157669067383e+00 }
            -
               depth: 10
               value: 4.
               norm_class_idx: 2
            -
               depth: 10
               value: 2.
               norm_class_idx: 0
               splits:
                  - { var:4, quality:1.4601409179687500e+04,
                      le:1.5392392873764038e-01 }
            -
               depth: 11
               value: 2.
               norm_class_idx: 0
               splits:
                  - { var:1, quality:1.0710229492187500e+04,
                      le:8.9244675636291504e-01 }
            -
               depth: 12
               value: 2.
               norm_class_idx: 0
            -
               depth: 12
               value: 2.
               norm_class_idx: 0
               splits:
                  - { var:5, quality:1.0708042968750000e+04,
                      le:-8.6071670055389404e-01 }
            -
               depth: 13
               value: 2.
               norm_class_idx: 0
               splits:
                  - { var:4, quality:3.7068930664062500e+03,
                      le:-1.0132205486297607e-01 }
            -
               depth: 14
               value: 2.
               norm_class_idx: 0
               splits:
                  - { var:5, quality:2.2360568847656250e+03,
                      le:-8.6092114448547363e-01 }
            -
               depth: 15
               value: 2.
               norm_class_idx: 0
               splits:
                  - { var:1, quality:2.2351796875000000e+03,
                      le:1.0293316841125488e+00 }
            -
               depth: 16
               value: 2.
               norm_class_idx: 0
            -
               depth: 16
               value: 2.
               norm_class_idx: 0
            -
               depth: 15
               value: 3.
               norm_class_idx: 1
            -
               depth: 14
               value: 2.
               norm_class_idx: 0
            -
               depth: 13
               value: 2.
               norm_class_idx: 0
               splits:
                  - { var:2, quality:7.0027998046875000e+03,
                      le:1.2715833187103271e+00 }
            -
               depth: 14
               value: 2.
               norm_class_idx: 0
               splits:
                  - { var:0, quality:6.2272534179687500e+03,
                      le:1.3732481002807617e+00 }
            -
               depth: 15
               value: 2.
               norm_class_idx: 0
            -
               depth: 15
               value: 2.
               norm_class_idx: 0
               splits:
                  - { var:2, quality:5.5091655273437500e+03,
                      le:1.2299201488494873e+00 }
            -
               depth: 16
               value: 2.
               norm_class_idx: 0
            -
               depth: 16
               value: 2.
               norm_class_idx: 0
               splits:
                  - { var:3, quality:5.2922285156250000e+03,
                      le:2.0085315406322479e-01 }
            -
               depth: 17
               value: 2.
               norm_class_idx: 0
            -
               depth: 17
               value: 2.
               norm_class_idx: 0
               splits:
                  - { var:5, quality:5.1450795898437500e+03,
                      le:-8.2195985317230225e-01 }
            -
               depth: 18
               value: 2.
               norm_class_idx: 0
            -
               depth: 18
               value: 2.
               norm_class_idx: 0
               splits:
                  - { var:4, quality:4.8970166015625000e+03,
                      le:-2.6557195186614990e-01 }
            -
               depth: 19
               value: 2.
               norm_class_idx: 0
               splits:
                  - { var:5, quality:2.8790278320312500e+03,
                      le:7.9558253288269043e-01 }
            -
               depth: 20
               value: 2.
               norm_class_idx: 0
            -
               depth: 20
               value: 2.
               norm_class_idx: 0
            -
               depth: 19
               value: 2.
               norm_class_idx: 0
               splits:
                  - { var:1, quality:2.0180330810546875e+03,
                      le:1.0215947628021240e+00 }
            -
               depth: 20
               value: 2.
               norm_class_idx: 0
            -
               depth: 20
               value: 2.
               norm_class_idx: 0
            -
               depth: 14
               value: 2.
               norm_class_idx: 0
            -
               depth: 11
               value: 2.
               norm_class_idx: 0
               splits:
                  - { var:3, quality:3.9035715332031250e+03,
                      le:2.8410977125167847e-01 }
            -
               depth: 12
               value: 2.
               norm_class_idx: 0
               splits:
                  - { var:4, quality:1.9774307861328125e+03,
                      le:9.3604397773742676e-01 }
            -
               depth: 13
               value: 2.
               norm_class_idx: 0
               splits:
                  - { var:2, quality:1.9181170654296875e+03,
                      le:1.2464466094970703e+00 }
            -
               depth: 14
               value: 2.
               norm_class_idx: 0
            -
               depth: 14
               value: 2.
               norm_class_idx: 0
            -
               depth: 13
               value: 2.
               norm_class_idx: 0
            -
               depth: 12
               value: 2.
               norm_class_idx: 0
               splits:
                  - { var:3, quality:1.9375097656250000e+03,
                      le:3.0321043729782104e-01 }
            -
               depth: 13
               value: 2.
               norm_class_idx: 0
            -
               depth: 13
               value: 2.
               norm_class_idx: 0
            -
               depth: 7
               value: 2.
               norm_class_idx: 0
               splits:
                  - { var:3, quality:1.0745484375000000e+04,
                      le:2.0228838920593262e-01 }
            -
               depth: 8
               value: 2.
               norm_class_idx: 0
            -
               depth: 8
               value: 2.
               norm_class_idx: 0
               splits:
                  - { var:4, quality:1.0712090820312500e+04,
                      le:-1.1204726994037628e-02 }
            -
               depth: 9
               value: 2.
               norm_class_idx: 0
               splits:
                  - { var:1, quality:6.2850756835937500e+03,
                      le:1.1102904081344604e+00 }
            -
               depth: 10
               value: 2.
               norm_class_idx: 0
               splits:
                  - { var:5, quality:6.1394062500000000e+03,
                      le:-9.9745070934295654e-01 }
            -
               depth: 11
               value: 2.
               norm_class_idx: 0
            -
               depth: 11
               value: 2.
               norm_class_idx: 0
               splits:
                  - { var:4, quality:4.9417714843750000e+03,
                      le:-2.4979752302169800e-01 }
            -
               depth: 12
               value: 2.
               norm_class_idx: 0
               splits:
                  - { var:3, quality:3.3341811523437500e+03,
                      le:2.3013627529144287e-01 }
            -
               depth: 13
               value: 2.
               norm_class_idx: 0
            -
               depth: 13
               value: 2.
               norm_class_idx: 0
               splits:
                  - { var:2, quality:3.3205949707031250e+03,
                      le:1.3276945352554321e+00 }
            -
               depth: 14
               value: 2.
               norm_class_idx: 0
               splits:
                  - { var:1, quality:2.3242543945312500e+03,
                      le:1.0068051815032959e+00 }
            -
               depth: 15
               value: 2.
               norm_class_idx: 0
            -
               depth: 15
               value: 2.
               norm_class_idx: 0
               splits:
                  - { var:5, quality:1.9262950439453125e+03,
                      le:-9.8959982395172119e-01 }
            -
               depth: 16
               value: 2.
               norm_class_idx: 0
            -
               depth: 16
               value: 2.
               norm_class_idx: 0
               splits:
                  - { var:5, quality:1.9210333251953125e+03,
                      le:-9.4010388851165771e-01 }
            -
               depth: 17
               value: 2.
               norm_class_idx: 0
            -
               depth: 17
               value: 2.
               norm_class_idx: 0
               splits:
                  - { var:1, quality:1.8540179443359375e+03,
                      le:1.0306792259216309e+00 }
            -
               depth: 18
               value: 2.
               norm_class_idx: 0
            -
               depth: 18
               value: 2.
               norm_class_idx: 0
            -
               depth: 14
               value: 2.
               norm_class_idx: 0
            -
               depth: 12
               value: 2.
               norm_class_idx: 0
            -
               depth: 10
               value: 2.
               norm_class_idx: 0
            -
               depth: 9
               value: 2.
               norm_class_idx: 0
               splits:
                  - { var:0, quality:4.4414145507812500e+03,
                      le:1.5413433313369751e+00 }
            -
               depth: 10
               value: 2.
               norm_class_idx: 0
            -
               depth: 10
               value: 2.
               norm_class_idx: 0
               splits:
                  - { var:2, quality:3.5523913574218750e+03,
                      le:1.3299238681793213e+00 }
            -
               depth: 11
               value: 2.
               norm_class_idx: 0
               splits:
                  - { var:2, quality:2.5458383789062500e+03,
                      le:1.2787644863128662e+00 }
            -
               depth: 12
               value: 4.
               norm_class_idx: 2
            -
               depth: 12
               value: 2.
               norm_class_idx: 0
               splits:
                  - { var:0, quality:2.5490681152343750e+03,
                      le:1.5558748245239258e+00 }
            -
               depth: 13
               value: 2.
               norm_class_idx: 0
            -
               depth: 13
               value: 2.
               norm_class_idx: 0
               splits:
                  - { var:0, quality:2.4986894531250000e+03,
                      le:1.8994450569152832e+00 }
            -
               depth: 14
               value: 2.
               norm_class_idx: 0
               splits:
                  - { var:1, quality:1.9835734863281250e+03,
                      le:1.0221364498138428e+00 }
            -
               depth: 15
               value: 2.
               norm_class_idx: 0
            -
               depth: 15
               value: 2.
               norm_class_idx: 0
            -
               depth: 14
               value: 2.
               norm_class_idx: 0
            -
               depth: 11
               value: 2.
               norm_class_idx: 0
            -
               depth: 5
               value: 2.
               norm_class_idx: 0
               splits:
                  - { var:5, quality:1.6870189453125000e+04,
                      le:6.0817213058471680e+00 }
            -
               depth: 6
               value: 2.
               norm_class_idx: 0
               splits:
                  - { var:0, quality:1.6552578125000000e+04,
                      le:1.2780244350433350e+00 }
            -
               depth: 7
               value: 2.
               norm_class_idx: 0
               splits:
                  - { var:3, quality:3.0170930175781250e+03,
                      le:5.6741937994956970e-02 }
            -
               depth: 8
               value: 2.
               norm_class_idx: 0
            -
               depth: 8
               value: 2.
               norm_class_idx: 0
               splits:
                  - { var:4, quality:2.8630905761718750e+03,
                      le:-2.0100336074829102e+00 }
            -
               depth: 9
               value: 3.
               norm_class_idx: 1
            -
               depth: 9
               value: 2.
               norm_class_idx: 0
               splits:
                  - { var:3, quality:2.8680961914062500e+03,
