%YAML:1.0
opencv_ml_rtrees:
   format: 3
   is_classifier: 1
   var_all: 7
   var_count: 6
   ord_var_count: 6
   cat_var_count: 1
   training_params:
      use_surrogates: 0
      max_categories: 10
      regression_accuracy: 0.
      max_depth: 20
      min_sample_count: 10
      cross_validation_folds: 0
      nactive_vars: 0
   global_var_idx: 1
   var_idx: [ 0, 1, 2, 3, 4, 5 ]
   var_type: [ 0, 0, 0, 0, 0, 0, 1 ]
   cat_ofs: [ 0, 0, 0, 0, 0, 0, 0, 0, 0, 0, 0, 0 ]
   class_labels: [ 2, 4, 5 ]
   missing_subst: [ 0., 0., 0., 0., 0., 0., 0. ]
   oob_error: 5.2088221492257156e-02
   ntrees: 1
   trees:
      -
         nodes:
            -
               depth: 0
               value: 2.
               norm_class_idx: 0
               splits:
                  - { var:2, quality:1.2967118750000000e+05,
                      le:7.8158926963806152e-01 }
            -
               depth: 1
               value: 2.
               norm_class_idx: 0
               splits:
                  - { var:2, quality:1.2566485156250000e+05,
                      le:1.1672560870647430e-01 }
            -
               depth: 2
               value: 2.
               norm_class_idx: 0
               splits:
                  - { var:2, quality:1.6781962890625000e+04,
                      le:4.4445075094699860e-02 }
            -
               depth: 3
               value: 2.
               norm_class_idx: 0
               splits:
                  - { var:3, quality:6.9618881835937500e+03,
                      le:3.2025775872170925e-03 }
            -
               depth: 4
               value: 2.
               norm_class_idx: 0
               splits:
                  - { var:0, quality:1.3970955810546875e+03,
                      le:1.1323262006044388e-02 }
            -
               depth: 5
               value: 2.
               norm_class_idx: 0
               splits:
                  - { var:3, quality:9.1478143310546875e+02,
                      le:1.0991180315613747e-03 }
            -
               depth: 6
               value: 2.
               norm_class_idx: 0
               splits:
                  - { var:0, quality:6.6104254150390625e+02,
                      le:1.1166277341544628e-02 }
            -
               depth: 7
               value: 2.
               norm_class_idx: 0
            -
               depth: 7
               value: 2.
               norm_class_idx: 0
               splits:
                  - { var:0, quality:47., le:1.1186030693352222e-02 }
            -
               depth: 8
               value: 4.
               norm_class_idx: 1
            -
               depth: 8
               value: 2.
               norm_class_idx: 0
            -
               depth: 6
               value: 2.
               norm_class_idx: 0
               splits:
                  - { var:4, quality:2.8316265869140625e+02,
                      le:-5.1083588600158691e-01 }
            -
               depth: 7
               value: 4.
               norm_class_idx: 1
            -
               depth: 7
               value: 2.
               norm_class_idx: 0
               splits:
                  - { var:0, quality:2.7833599853515625e+02,
                      le:1.0485196486115456e-02 }
            -
               depth: 8
               value: 2.
               norm_class_idx: 0
            -
               depth: 8
               value: 2.
               norm_class_idx: 0
               splits:
                  - { var:1, quality:9.6868850708007812e+01,
                      le:7.0412196218967438e-03 }
            -
               depth: 9
               value: 2.
               norm_class_idx: 0
            -
               depth: 9
               value: 4.
               norm_class_idx: 1
               splits:
                  - { var:1, quality:5.5720001220703125e+01,
                      le:8.4054805338382721e-03 }
            -
               depth: 10
               value: 4.
               norm_class_idx: 1
            -
               depth: 10
               value: 2.
               norm_class_idx: 0
               splits:
                  - { var:2, quality:21., le:9.2918202280998230e-03 }
            -
               depth: 11
               value: 2.
               norm_class_idx: 0
            -
               depth: 11
               value: 2.
               norm_class_idx: 0
            -
               depth: 5
               value: 2.
               norm_class_idx: 0
               splits:
                  - { var:0, quality:5.5370422363281250e+02,
                      le:1.5857631340622902e-02 }
            -
               depth: 6
               value: 2.
               norm_class_idx: 0
               splits:
                  - { var:1, quality:4.5882034301757812e+02,
                      le:7.7661140821874142e-03 }
            -
               depth: 7
               value: 2.
               norm_class_idx: 0
               splits:
                  - { var:4, quality:1.8025000000000000e+02,
                      le:1.5532088279724121e+00 }
            -
               depth: 8
               value: 2.
               norm_class_idx: 0
            -
               depth: 8
               value: 2.
               norm_class_idx: 0
            -
               depth: 7
               value: 4.
               norm_class_idx: 1
               splits:
                  - { var:3, quality:3.4829003906250000e+02,
                      le:1.4672467950731516e-03 }
            -
               depth: 8
               value: 2.
               norm_class_idx: 0
               splits:
                  - { var:1, quality:1.3851562500000000e+02,
                      le:8.8224755600094795e-03 }
            -
               depth: 9
               value: 4.
               norm_class_idx: 1
               splits:
                  - { var:2, quality:1.4133333206176758e+01,
                      le:9.9369250237941742e-03 }
            -
               depth: 10
               value: 4.
               norm_class_idx: 1
               splits:
                  - { var:0, quality:15., le:1.2915320694446564e-02 }
            -
               depth: 11
               value: 4.
               norm_class_idx: 1
            -
               depth: 11
               value: 2.
               norm_class_idx: 0
            -
               depth: 10
               value: 2.
               norm_class_idx: 0
            -
               depth: 9
               value: 2.
               norm_class_idx: 0
               splits:
                  - { var:4, quality:128., le:1.6012105941772461e+00 }
            -
               depth: 10
               value: 2.
               norm_class_idx: 0
            -
               depth: 10
               value: 4.
               norm_class_idx: 1
            -
               depth: 8
               value: 4.
               norm_class_idx: 1
               splits:
                  - { var:0, quality:2.5473464965820312e+02,
                      le:1.4998286962509155e-02 }
            -
               depth: 9
               value: 4.
               norm_class_idx: 1
               splits:
                  - { var:0, quality:1.9584375000000000e+02,
                      le:1.2611955404281616e-02 }
            -
               depth: 10
               value: 4.
               norm_class_idx: 1
            -
               depth: 10
               value: 4.
               norm_class_idx: 1
               splits:
                  - { var:1, quality:1.2998980712890625e+02,
                      le:8.3807222545146942e-03 }
            -
               depth: 11
               value: 2.
               norm_class_idx: 0
               splits:
                  - { var:3, quality:26., le:2.3044573608785868e-03 }
            -
               depth: 12
               value: 4.
               norm_class_idx: 1
            -
               depth: 12
               value: 2.
               norm_class_idx: 0
            -
               depth: 11
               value: 4.
               norm_class_idx: 1
               splits:
                  - { var:5, quality:1.1519049835205078e+02,
                      le:-2.4846327304840088e-01 }
            -
               depth: 12
               value: 4.
               norm_class_idx: 1
               splits:
                  - { var:1, quality:4.6731750488281250e+01,
                      le:9.4882510602474213e-03 }
            -
               depth: 13
               value: 2.
               norm_class_idx: 0
               splits:
                  - { var:2, quality:3.0380952835083008e+01,
                      le:1.1240300722420216e-02 }
            -
               depth: 14
               value: 4.
               norm_class_idx: 1
               splits:
                  - { var:0, quality:1.5970588684082031e+01,
                      le:1.4093596488237381e-02 }
            -
               depth: 15
               value: 4.
               norm_class_idx: 1
               splits:
                  - { var:2, quality:14., le:1.0851248167455196e-02 }
            -
               depth: 16
               value: 4.
               norm_class_idx: 1
            -
               depth: 16
               value: 4.
               norm_class_idx: 1
            -
               depth: 15
               value: 2.
               norm_class_idx: 0
            -
               depth: 14
               value: 2.
               norm_class_idx: 0
            -
               depth: 13
               value: 4.
               norm_class_idx: 1
               splits:
                  - { var:2, quality:2.7571428298950195e+01,
                      le:1.1657360941171646e-02 }
            -
               depth: 14
               value: 4.
               norm_class_idx: 1
            -
               depth: 14
               value: 4.
               norm_class_idx: 1
               splits:
                  - { var:2, quality:14., le:1.1791285127401352e-02 }
            -
               depth: 15
               value: 2.
               norm_class_idx: 0
            -
               depth: 15
               value: 4.
               norm_class_idx: 1
            -
               depth: 12
               value: 4.
               norm_class_idx: 1
               splits:
                  - { var:3, quality:8.4053764343261719e+01,
                      le:1.5441537834703922e-03 }
            -
               depth: 13
               value: 2.
               norm_class_idx: 0
            -
               depth: 13
               value: 4.
               norm_class_idx: 1
               splits:
                  - { var:3, quality:8.5355552673339844e+01,
                      le:2.7708336710929871e-03 }
            -
               depth: 14
               value: 4.
               norm_class_idx: 1
               splits:
                  - { var:2, quality:8.2941177368164062e+01,
                      le:1.1285380460321903e-02 }
            -
               depth: 15
               value: 4.
               norm_class_idx: 1
            -
               depth: 15
               value: 4.
               norm_class_idx: 1
               splits:
                  - { var:3, quality:28., le:2.1749539300799370e-03 }
            -
               depth: 16
               value: 4.
               norm_class_idx: 1
               splits:
                  - { var:4, quality:1.4399999618530273e+01,
                      le:1.2637862563133240e-01 }
            -
               depth: 17
               value: 2.
               norm_class_idx: 0
            -
               depth: 17
               value: 4.
               norm_class_idx: 1
            -
               depth: 16
               value: 4.
               norm_class_idx: 1
            -
               depth: 14
               value: 2.
               norm_class_idx: 0
            -
               depth: 9
               value: 2.
               norm_class_idx: 0
               splits:
                  - { var:3, quality:9.4603919982910156e+01,
                      le:2.7703095693141222e-03 }
            -
               depth: 10
               value: 4.
               norm_class_idx: 1
               splits:
                  - { var:0, quality:7.5763549804687500e+01,
                      le:1.5230040997266769e-02 }
            -
               depth: 11
               value: 2.
               norm_class_idx: 0
               splits:
                  - { var:0, quality:2.7500000000000000e+01,
                      le:1.5158864669501781e-02 }
            -
               depth: 12
               value: 4.
               norm_class_idx: 1
            -
               depth: 12
               value: 2.
               norm_class_idx: 0
            -
               depth: 11
               value: 4.
               norm_class_idx: 1
               splits:
                  - { var:5, quality:5.2400001525878906e+01,
                      le:9.3227452039718628e-01 }
            -
               depth: 12
               value: 4.
               norm_class_idx: 1
            -
               depth: 12
               value: 4.
               norm_class_idx: 1
               splits:
                  - { var:0, quality:20., le:1.5302093699574471e-02 }
            -
               depth: 13
               value: 2.
               norm_class_idx: 0
            -
               depth: 13
               value: 4.
               norm_class_idx: 1
            -
               depth: 10
               value: 2.
               norm_class_idx: 0
               splits:
                  - { var:4, quality:4.7615383148193359e+01,
                      le:7.3241718113422394e-02 }
            -
               depth: 11
               value: 2.
               norm_class_idx: 0
               splits:
                  - { var:5, quality:13., le:-1.0350530147552490e+00 }
            -
               depth: 12
               value: 4.
               norm_class_idx: 1
            -
               depth: 12
               value: 2.
               norm_class_idx: 0
            -
               depth: 11
               value: 2.
               norm_class_idx: 0
            -
               depth: 6
               value: 4.
               norm_class_idx: 1
               splits:
                  - { var:2, quality:1.7775332641601562e+02,
                      le:1.2997426092624664e-02 }
            -
               depth: 7
               value: 4.
               norm_class_idx: 1
               splits:
                  - { var:0, quality:9.8289718627929688e+01,
                      le:1.6317853704094887e-02 }
            -
               depth: 8
               value: 4.
               norm_class_idx: 1
            -
               depth: 8
               value: 4.
               norm_class_idx: 1
               splits:
                  - { var:3, quality:6.5595237731933594e+01,
                      le:2.7047703042626381e-03 }
            -
               depth: 9
               value: 4.
               norm_class_idx: 1
            -
               depth: 9
               value: 2.
               norm_class_idx: 0
               splits:
                  - { var:5, quality:4.7376625061035156e+01,
                      le:4.7802062034606934e+00 }
            -
               depth: 10
               value: 2.
               norm_class_idx: 0
               splits:
                  - { var:2, quality:4.6444442749023438e+01,
                      le:1.2112211436033249e-02 }
            -
               depth: 11
               value: 4.
               norm_class_idx: 1
               splits:
                  - { var:0, quality:2.8266666412353516e+01,
                      le:1.7213456332683563e-02 }
            -
               depth: 12
               value: 2.
               norm_class_idx: 0
               splits:
                  - { var:1, quality:1.0500000000000000e+01,
                      le:9.2921182513237000e-03 }
            -
               depth: 13
               value: 2.
               norm_class_idx: 0
            -
               depth: 13
               value: 2.
               norm_class_idx: 0
            -
               depth: 12
               value: 4.
               norm_class_idx: 1
               splits:
                  - { var:5, quality:1.8666666030883789e+01,
                      le:2.1033062934875488e+00 }
            -
               depth: 13
               value: 4.
               norm_class_idx: 1
            -
               depth: 13
               value: 4.
               norm_class_idx: 1
            -
               depth: 11
               value: 2.
               norm_class_idx: 0
               splits:
                  - { var:1, quality:3.9473682403564453e+01,
                      le:1.1399796232581139e-02 }
            -
               depth: 12
               value: 2.
               norm_class_idx: 0
               splits:
                  - { var:1, quality:3.3500000000000000e+01,
                      le:1.0649414733052254e-02 }
            -
               depth: 13
               value: 2.
               norm_class_idx: 0
            -
               depth: 13
               value: 2.
               norm_class_idx: 0
               splits:
                  - { var:1, quality:1.0199999809265137e+01,
                      le:1.0711403563618660e-02 }
            -
               depth: 14
               value: 4.
               norm_class_idx: 1
            -
               depth: 14
               value: 2.
               norm_class_idx: 0
            -
               depth: 12
               value: 4.
               norm_class_idx: 1
            -
               depth: 10
               value: 4.
               norm_class_idx: 1
            -
               depth: 7
               value: 4.
               norm_class_idx: 1
               splits:
                  - { var:1, quality:9.9020622253417969e+01,
                      le:1.2691955082118511e-02 }
            -
               depth: 8
               value: 4.
               norm_class_idx: 1
               splits:
                  - { var:3, quality:96., le:3.1932638958096504e-03 }
            -
               depth: 9
               value: 4.
               norm_class_idx: 1
            -
               depth: 9
               value: 2.
               norm_class_idx: 0
            -
               depth: 8
               value: 2.
               norm_class_idx: 0
            -
               depth: 4
               value: 2.
               norm_class_idx: 0
               splits:
                  - { var:5, quality:5.7888339843750000e+03,
                      le:1.3631227612495422e-01 }
            -
               depth: 5
               value: 2.
               norm_class_idx: 0
               splits:
                  - { var:0, quality:3.8319323730468750e+03,
                      le:5.3530570119619370e-02 }
            -
               depth: 6
               value: 2.
               norm_class_idx: 0
               splits:
                  - { var:2, quality:3.6419670410156250e+03,
                      le:1.4449417591094971e-02 }
            -
               depth: 7
               value: 2.
               norm_class_idx: 0
               splits:
                  - { var:0, quality:1.1268991699218750e+03,
                      le:2.1749369800090790e-02 }
            -
               depth: 8
               value: 2.
               norm_class_idx: 0
               splits:
                  - { var:1, quality:9.5649273681640625e+02,
                      le:1.0897227562963963e-02 }
            -
               depth: 9
               value: 2.
               norm_class_idx: 0
               splits:
                  - { var:5, quality:8.7158276367187500e+02,
                      le:-1.1001720428466797e+00 }
            -
               depth: 10
               value: 2.
               norm_class_idx: 0
               splits:
                  - { var:1, quality:6.8599998474121094e+01,
                      le:1.0325669310986996e-02 }
            -
               depth: 11
               value: 2.
               norm_class_idx: 0
            -
               depth: 11
               value: 2.
               norm_class_idx: 0
               splits:
                  - { var:3, quality:1.7333333969116211e+01,
                      le:3.4747917670756578e-03 }
            -
               depth: 12
               value: 4.
               norm_class_idx: 1
            -
               depth: 12
               value: 2.
               norm_class_idx: 0
            -
               depth: 10
               value: 2.
               norm_class_idx: 0
               splits:
                  - { var:4, quality:8.0426867675781250e+02,
                      le:2.3808665573596954e-01 }
            -
               depth: 11
               value: 2.
               norm_class_idx: 0
               splits:
                  - { var:2, quality:1.9964010620117188e+02,
                      le:1.1159865185618401e-02 }
            -
               depth: 12
               value: 2.
               norm_class_idx: 0
               splits:
                  - { var:1, quality:4.5285713195800781e+01,
                      le:8.9040938764810562e-03 }
            -
               depth: 13
               value: 2.
               norm_class_idx: 0
            -
               depth: 13
               value: 2.
               norm_class_idx: 0
               splits:
                  - { var:2, quality:14., le:1.1029031127691269e-02 }
            -
               depth: 14
               value: 2.
               norm_class_idx: 0
            -
               depth: 14
               value: 4.
               norm_class_idx: 1
            -
               depth: 12
               value: 2.
               norm_class_idx: 0
               splits:
                  - { var:1, quality:1.5607142639160156e+02,
                      le:1.0442200116813183e-02 }
            -
               depth: 13
               value: 2.
               norm_class_idx: 0
            -
               depth: 13
               value: 2.
               norm_class_idx: 0
               splits:
                  - { var:1, quality:28., le:1.0462289676070213e-02 }
            -
               depth: 14
               value: 4.
               norm_class_idx: 1
            -
               depth: 14
               value: 2.
               norm_class_idx: 0
            -
               depth: 11
               value: 2.
               norm_class_idx: 0
               splits:
                  - { var:1, quality:6.0507501220703125e+02,
                      le:9.5415767282247543e-03 }
            -
               depth: 12
               value: 2.
               norm_class_idx: 0
            -
               depth: 12
               value: 2.
               norm_class_idx: 0
               splits:
                  - { var:5, quality:2.3424501037597656e+02,
                      le:-8.1886333227157593e-01 }
            -
               depth: 13
               value: 2.
               norm_class_idx: 0
               splits:
                  - { var:4, quality:32., le:6.3262426853179932e-01 }
            -
               depth: 14
               value: 2.
               norm_class_idx: 0
            -
               depth: 14
               value: 2.
               norm_class_idx: 0
            -
               depth: 13
               value: 2.
               norm_class_idx: 0
               splits:
                  - { var:2, quality:2.0439999389648438e+02,
                      le:1.1334370821714401e-02 }
            -
               depth: 14
               value: 2.
               norm_class_idx: 0
            -
               depth: 14
               value: 2.
               norm_class_idx: 0
            -
               depth: 9
               value: 2.
               norm_class_idx: 0
               splits:
                  - { var:1, quality:8.8026084899902344e+01,
                      le:1.0913318954408169e-02 }
            -
               depth: 10
               value: 4.
               norm_class_idx: 1
            -
               depth: 10
               value: 2.
               norm_class_idx: 0
               splits:
                  - { var:4, quality:8.8706665039062500e+01,
                      le:1.4023393392562866e-01 }
            -
               depth: 11
               value: 2.
               norm_class_idx: 0
            -
               depth: 11
               value: 2.
               norm_class_idx: 0
               splits:
                  - { var:0, quality:5.3760562896728516e+01,
                      le:1.7955720424652100e-02 }
            -
               depth: 12
               value: 4.
               norm_class_idx: 1
            -
               depth: 12
               value: 2.
               norm_class_idx: 0
               splits:
                  - { var:0, quality:5.1114284515380859e+01,
                      le:2.1731134504079819e-02 }
            -
               depth: 13
               value: 2.
               norm_class_idx: 0
               splits:
                  - { var:5, quality:5.1833332061767578e+01,
                      le:-4.7707349061965942e-01 }
            -
               depth: 14
               value: 2.
               norm_class_idx: 0
               splits:
                  - { var:4, quality:2.6500000000000000e+01,
                      le:2.6123636960983276e-01 }
            -
               depth: 15
               value: 2.
               norm_class_idx: 0
            -
               depth: 15
               value: 2.
               norm_class_idx: 0
            -
               depth: 14
               value: 2.
               norm_class_idx: 0
               splits:
                  - { var:4, quality:2.6882352828979492e+01,
                      le:4.3575784564018250e-01 }
            -
               depth: 15
               value: 2.
               norm_class_idx: 0
            -
               depth: 15
               value: 2.
               norm_class_idx: 0
               splits:
                  - { var:0, quality:2.5633699417114258e+01,
                      le:2.0196873694658279e-02 }
            -
               depth: 16
               value: 2.
               norm_class_idx: 0
               splits:
                  - { var:4, quality:1.1250000000000000e+01,
                      le:7.0114058256149292e-01 }
            -
               depth: 17
               value: 2.
               norm_class_idx: 0
            -
               depth: 17
               value: 4.
               norm_class_idx: 1
            -
               depth: 16
               value: 2.
               norm_class_idx: 0
               splits:
                  - { var:4, quality:1.9500000000000000e+01,
                      le:5.9727132320404053e-01 }
            -
               depth: 17
               value: 2.
               norm_class_idx: 0
            -
               depth: 17
               value: 2.
               norm_class_idx: 0
            -
               depth: 13
               value: 4.
               norm_class_idx: 1
            -
               depth: 8
               value: 2.
               norm_class_idx: 0
            -
               depth: 7
               value: 2.
               norm_class_idx: 0
               splits:
                  - { var:3, quality:2.5435571289062500e+03,
                      le:4.1579464450478554e-03 }
            -
               depth: 8
               value: 2.
               norm_class_idx: 0
               splits:
                  - { var:4, quality:6.7681632995605469e+01,
                      le:1.8028444051742554e-01 }
            -
               depth: 9
               value: 2.
               norm_class_idx: 0
               splits:
                  - { var:5, quality:4.1195121765136719e+01,
                      le:-8.9602553844451904e-01 }
            -
               depth: 10
               value: 4.
               norm_class_idx: 1
            -
               depth: 10
               value: 2.
               norm_class_idx: 0
               splits:
                  - { var:5, quality:38., le:-6.8078368902206421e-01 }
            -
               depth: 11
               value: 2.
               norm_class_idx: 0
            -
               depth: 11
               value: 2.
               norm_class_idx: 0
            -
               depth: 9
               value: 4.
               norm_class_idx: 1
               splits:
                  - { var:2, quality:4.7049999237060547e+01,
                      le:1.7695412039756775e-02 }
            -
               depth: 10
               value: 4.
               norm_class_idx: 1
               splits:
                  - { var:4, quality:3.8400001525878906e+01,
                      le:8.2383829355239868e-01 }
            -
               depth: 11
               value: 4.
               norm_class_idx: 1
            -
               depth: 11
               value: 4.
               norm_class_idx: 1
            -
               depth: 10
               value: 2.
               norm_class_idx: 0
            -
               depth: 8
               value: 2.
               norm_class_idx: 0
               splits:
                  - { var:3, quality:2.4998796386718750e+03,
                      le:5.6922892108559608e-03 }
            -
               depth: 9
               value: 2.
               norm_class_idx: 0
               splits:
                  - { var:4, quality:5.0113662719726562e+02,
                      le:8.3566039800643921e-01 }
            -
               depth: 10
               value: 2.
               norm_class_idx: 0
               splits:
                  - { var:2, quality:4.8348944091796875e+02,
                      le:1.6938004642724991e-02 }
            -
               depth: 11
               value: 2.
               norm_class_idx: 0
               splits:
                  - { var:5, quality:3.1522360229492188e+02,
                      le:-1.3527400493621826e+00 }
            -
               depth: 12
               value: 2.
               norm_class_idx: 0
            -
               depth: 12
               value: 2.
               norm_class_idx: 0
               splits:
                  - { var:5, quality:3.1064501953125000e+02,
                      le:-1.0191636085510254e+00 }
            -
               depth: 13
               value: 2.
               norm_class_idx: 0
               splits:
                  - { var:5, quality:4.6352939605712891e+01,
                      le:-1.0285722017288208e+00 }
            -
               depth: 14
               value: 2.
               norm_class_idx: 0
               splits:
                  - { var:0, quality:46., le:2.1353097632527351e-02 }
            -
               depth: 15
               value: 2.
               norm_class_idx: 0
            -
               depth: 15
               value: 2.
               norm_class_idx: 0
               splits:
                  - { var:4, quality:1.4470588684082031e+01,
                      le:6.0338884592056274e-01 }
            -
               depth: 16
               value: 2.
               norm_class_idx: 0
               splits:
                  - { var:0, quality:17., le:2.1377820521593094e-02 }
            -
               depth: 17
               value: 4.
               norm_class_idx: 1
            -
               depth: 17
               value: 2.
               norm_class_idx: 0
            -
               depth: 16
               value: 4.
               norm_class_idx: 1
            -
               depth: 14
               value: 4.
               norm_class_idx: 1
            -
               depth: 13
               value: 2.
               norm_class_idx: 0
               splits:
                  - { var:3, quality:2.6640756225585938e+02,
                      le:4.2421254329383373e-03 }
            -
               depth: 14
               value: 2.
               norm_class_idx: 0
            -
               depth: 14
               value: 2.
               norm_class_idx: 0
               splits:
                  - { var:0, quality:2.6304348754882812e+02,
                      le:2.3694973438978195e-02 }
            -
               depth: 15
               value: 2.
               norm_class_idx: 0
            -
               depth: 15
               value: 2.
               norm_class_idx: 0
               splits:
                  - { var:2, quality:4.4400001525878906e+01,
                      le:1.5721242874860764e-02 }
            -
               depth: 16
               value: 2.
               norm_class_idx: 0
            -
               depth: 16
               value: 2.
               norm_class_idx: 0
            -
               depth: 11
               value: 2.
               norm_class_idx: 0
               splits:
                  - { var:0, quality:1.7571089172363281e+02,
                      le:2.3100122809410095e-02 }
            -
               depth: 12
               value: 2.
               norm_class_idx: 0
               splits:
                  - { var:4, quality:6.1111110687255859e+01,
                      le:5.5024373531341553e-01 }
            -
               depth: 13
               value: 2.
               norm_class_idx: 0
            -
               depth: 13
               value: 2.
               norm_class_idx: 0
               splits:
                  - { var:2, quality:1.6500000000000000e+01,
                      le:1.8201254308223724e-02 }
            -
               depth: 14
               value: 2.
               norm_class_idx: 0
            -
               depth: 14
               value: 2.
               norm_class_idx: 0
            -
               depth: 12
               value: 2.
               norm_class_idx: 0
               splits:
                  - { var:0, quality:1.2801199340820312e+02,
                      le:2.4710780009627342e-02 }
            -
               depth: 13
               value: 4.
               norm_class_idx: 1
               splits:
                  - { var:2, quality:3.2833332061767578e+01,
                      le:1.8148474395275116e-02 }
            -
               depth: 14
               value: 4.
               norm_class_idx: 1
               splits:
                  - { var:4, quality:2.0347826004028320e+01,
                      le:7.4050068855285645e-02 }
            -
               depth: 15
               value: 2.
               norm_class_idx: 0
            -
               depth: 15
               value: 4.
               norm_class_idx: 1
               splits:
                  - { var:1, quality:2.0142856597900391e+01,
                      le:1.2521001510322094e-02 }
            -
               depth: 16
               value: 4.
               norm_class_idx: 1
            -
               depth: 16
               value: 4.
               norm_class_idx: 1
            -
               depth: 14
               value: 2.
               norm_class_idx: 0
               splits:
                  - { var:1, quality:24., le:1.3362000696361065e-02 }
            -
               depth: 15
               value: 4.
               norm_class_idx: 1
            -
               depth: 15
               value: 2.
               norm_class_idx: 0
            -
               depth: 13
               value: 2.
               norm_class_idx: 0
               splits:
                  - { var:2, quality:1.0966843414306641e+02,
                      le:2.0768005400896072e-02 }
            -
               depth: 14
               value: 2.
               norm_class_idx: 0
               splits:
                  - { var:1, quality:8.1439025878906250e+01,
                      le:1.4655603095889091e-02 }
            -
               depth: 15
               value: 2.
               norm_class_idx: 0
               splits:
                  - { var:4, quality:3.7054054260253906e+01,
                      le:7.8692460060119629e-01 }
            -
               depth: 16
               value: 2.
               norm_class_idx: 0
               splits:
                  - { var:1, quality:37., le:1.4649150893092155e-02 }
            -
               depth: 17
               value: 2.
               norm_class_idx: 0
            -
               depth: 17
               value: 4.
               norm_class_idx: 1
            -
               depth: 16
               value: 2.
               norm_class_idx: 0
            -
               depth: 15
               value: 2.
               norm_class_idx: 0
            -
               depth: 14
               value: 2.
               norm_class_idx: 0
               splits:
                  - { var:1, quality:52., le:1.6484189778566360e-02 }
            -
               depth: 15
               value: 4.
               norm_class_idx: 1
            -
               depth: 15
               value: 2.
               norm_class_idx: 0
            -
               depth: 10
               value: 2.
               norm_class_idx: 0
               splits:
                  - { var:0, quality:2.8726190567016602e+01,
                      le:2.3816805332899094e-02 }
            -
               depth: 11
               value: 2.
               norm_class_idx: 0
               splits:
                  - { var:4, quality:1.7347368240356445e+01,
                      le:8.6298251152038574e-01 }
            -
               depth: 12
               value: 4.
               norm_class_idx: 1
            -
               depth: 12
               value: 2.
               norm_class_idx: 0
               splits:
                  - { var:2, quality:1.7117647171020508e+01,
                      le:1.4538757503032684e-02 }
            -
               depth: 13
               value: 4.
               norm_class_idx: 1
            -
               depth: 13
               value: 2.
               norm_class_idx: 0
               splits:
                  - { var:5, quality:17., le:-4.6917647123336792e-01 }
            -
               depth: 14
               value: 4.
               norm_class_idx: 1
            -
               depth: 14
               value: 2.
               norm_class_idx: 0
            -
               depth: 11
               value: 4.
               norm_class_idx: 1
               splits:
                  - { var:4, quality:2.0235294342041016e+01,
                      le:9.0785765647888184e-01 }
            -
               depth: 12
               value: 2.
               norm_class_idx: 0
               splits:
                  - { var:5, quality:14., le:-2.4508483707904816e-01 }
            -
               depth: 13
               value: 4.
               norm_class_idx: 1
            -
               depth: 13
               value: 2.
               norm_class_idx: 0
            -
               depth: 12
               value: 4.
               norm_class_idx: 1
            -
               depth: 9
               value: 2.
               norm_class_idx: 0
               splits:
                  - { var:1, quality:2.0154495849609375e+03,
                      le:1.4293146319687366e-02 }
            -
               depth: 10
               value: 2.
               norm_class_idx: 0
               splits:
                  - { var:4, quality:4.9709960937500000e+02,
                      le:1.0478371381759644e+00 }
            -
               depth: 11
               value: 2.
               norm_class_idx: 0
               splits:
                  - { var:5, quality:4.9273678588867188e+02,
                      le:-1.1761481761932373e+00 }
            -
               depth: 12
               value: 2.
               norm_class_idx: 0
               splits:
                  - { var:2, quality:2.0799999237060547e+01,
                      le:1.7560388892889023e-02 }
            -
               depth: 13
               value: 2.
               norm_class_idx: 0
            -
               depth: 13
               value: 2.
               norm_class_idx: 0
            -
               depth: 12
               value: 2.
               norm_class_idx: 0
               splits:
                  - { var:3, quality:4.7319512939453125e+02,
                      le:5.7937270030379295e-03 }
            -
               depth: 13
               value: 2.
               norm_class_idx: 0
               splits:
                  - { var:1, quality:3.8599998474121094e+01,
                      le:1.3813273981213570e-02 }
            -
               depth: 14
               value: 2.
               norm_class_idx: 0
            -
               depth: 14
               value: 2.
               norm_class_idx: 0
            -
               depth: 13
               value: 2.
               norm_class_idx: 0
            -
               depth: 11
               value: 2.
               norm_class_idx: 0
            -
               depth: 10
               value: 2.
               norm_class_idx: 0
               splits:
                  - { var:1, quality:1.5234193115234375e+03,
                      le:2.2795949131250381e-02 }
            -
               depth: 11
               value: 2.
               norm_class_idx: 0
               splits:
                  - { var:4, quality:9.9990832519531250e+02,
                      le:8.7134194374084473e-01 }
            -
               depth: 12
               value: 2.
               norm_class_idx: 0
               splits:
                  - { var:1, quality:9.3532006835937500e+02,
                      le:2.2735498845577240e-02 }
            -
               depth: 13
               value: 2.
               norm_class_idx: 0
               splits:
                  - { var:4, quality:9.3543139648437500e+02,
                      le:6.0817837715148926e-01 }
            -
               depth: 14
               value: 2.
               norm_class_idx: 0
               splits:
                  - { var:0, quality:7.1450793457031250e+02,
                      le:3.2533749938011169e-02 }
            -
               depth: 15
               value: 2.
               norm_class_idx: 0
               splits:
                  - { var:2, quality:3.0824542236328125e+02,
                      le:1.7539186403155327e-02 }
            -
               depth: 16
               value: 2.
               norm_class_idx: 0
            -
               depth: 16
               value: 2.
               norm_class_idx: 0
               splits:
                  - { var:0, quality:3.0415762329101562e+02,
                      le:3.0677448958158493e-02 }
            -
               depth: 17
               value: 2.
               norm_class_idx: 0
               splits:
                  - { var:2, quality:1.9534078979492188e+02,
                      le:2.2562090307474136e-02 }
            -
               depth: 18
               value: 2.
               norm_class_idx: 0
               splits:
                  - { var:1, quality:1.4609091186523438e+02,
                      le:1.4650262892246246e-02 }
            -
               depth: 19
               value: 2.
               norm_class_idx: 0
               splits:
                  - { var:0, quality:2.0399999618530273e+01,
                      le:2.6946282014250755e-02 }
            -
               depth: 20
               value: 2.
               norm_class_idx: 0
            -
               depth: 20
               value: 2.
               norm_class_idx: 0
            -
               depth: 19
               value: 2.
               norm_class_idx: 0
            -
               depth: 18
               value: 2.
               norm_class_idx: 0
               splits:
                  - { var:0, quality:5.3037734985351562e+01,
                      le:3.0607199296355247e-02 }
            -
               depth: 19
               value: 2.
               norm_class_idx: 0
               splits:
                  - { var:3, quality:5.1500000000000000e+01,
                      le:6.0934191569685936e-03 }
            -
               depth: 20
               value: 2.
               norm_class_idx: 0
            -
               depth: 20
               value: 2.
               norm_class_idx: 0
            -
               depth: 19
               value: 4.
               norm_class_idx: 1
            -
               depth: 17
               value: 2.
               norm_class_idx: 0
            -
               depth: 15
               value: 2.
               norm_class_idx: 0
               splits:
                  - { var:5, quality:4.0974114990234375e+02,
                      le:-5.9743565320968628e-01 }
            -
               depth: 16
               value: 2.
               norm_class_idx: 0
               splits:
                  - { var:0, quality:2.7113580322265625e+02,
                      le:3.2551653683185577e-02 }
            -
               depth: 17
               value: 4.
               norm_class_idx: 1
            -
               depth: 17
               value: 2.
               norm_class_idx: 0
               splits:
                  - { var:3, quality:2.6521112060546875e+02,
                      le:8.9567750692367554e-03 }
            -
               depth: 18
               value: 2.
               norm_class_idx: 0
               splits:
                  - { var:0, quality:1.3302856445312500e+02,
                      le:3.4626182168722153e-02 }
            -
               depth: 19
               value: 2.
               norm_class_idx: 0
               splits:
                  - { var:4, quality:5.9941448211669922e+01,
                      le:1.3174808025360107e-01 }
            -
               depth: 20
               value: 2.
               norm_class_idx: 0
            -
               depth: 20
               value: 2.
               norm_class_idx: 0
            -
               depth: 19
               value: 2.
               norm_class_idx: 0
            -
               depth: 18
               value: 2.
               norm_class_idx: 0
               splits:
                  - { var:2, quality:1.3889865112304688e+02,
                      le:2.6687664911150932e-02 }
            -
               depth: 19
               value: 2.
               norm_class_idx: 0
               splits:
                  - { var:2, quality:2.7058822631835938e+01,
                      le:2.5584492832422256e-02 }
            -
               depth: 20
               value: 2.
               norm_class_idx: 0
            -
               depth: 20
               value: 4.
               norm_class_idx: 1
            -
               depth: 19
               value: 2.
               norm_class_idx: 0
               splits:
                  - { var:5, quality:1.2739622497558594e+02,
                      le:-8.1116026639938354e-01 }
            -
               depth: 20
               value: 2.
               norm_class_idx: 0
            -
               depth: 20
               value: 2.
               norm_class_idx: 0
            -
               depth: 16
               value: 2.
               norm_class_idx: 0
               splits:
                  - { var:1, quality:1.5131167602539062e+02,
                      le:1.6924008727073669e-02 }
            -
               depth: 17
               value: 2.
               norm_class_idx: 0
               splits:
                  - { var:5, quality:24., le:-1.1961562931537628e-01 }
            -
               depth: 18
               value: 2.
               norm_class_idx: 0
            -
               depth: 18
               value: 2.
               norm_class_idx: 0
            -
               depth: 17
               value: 2.
               norm_class_idx: 0
               splits:
                  - { var:0, quality:1.2806250000000000e+02,
                      le:3.7079706788063049e-02 }
            -
               depth: 18
               value: 2.
               norm_class_idx: 0
               splits:
                  - { var:0, quality:32., le:3.7013031542301178e-02 }
            -
               depth: 19
               value: 2.
               norm_class_idx: 0
            -
               depth: 19
               value: 4.
               norm_class_idx: 1
            -
               depth: 18
               value: 2.
               norm_class_idx: 0
            -
               depth: 14
               value: 2.
               norm_class_idx: 0
               splits:
                  - { var:5, quality:2.2897885131835938e+02,
                      le:-5.3556197881698608e-01 }
            -
               depth: 15
               value: 2.
               norm_class_idx: 0
               splits:
                  - { var:2, quality:6.2730770111083984e+01,
                      le:1.9098710268735886e-02 }
            -
               depth: 16
               value: 4.
               norm_class_idx: 1
               splits:
                  - { var:1, quality:12., le:1.5455888584256172e-02 }
            -
               depth: 17
               value: 4.
               norm_class_idx: 1
            -
               depth: 17
               value: 2.
               norm_class_idx: 0
            -
               depth: 16
               value: 2.
               norm_class_idx: 0
               splits:
                  - { var:0, quality:5.5845108032226562e+01,
                      le:4.0804654359817505e-02 }
            -
               depth: 17
               value: 2.
               norm_class_idx: 0
               splits:
                  - { var:2, quality:3.0878047943115234e+01,
                      le:3.3211223781108856e-02 }
            -
               depth: 18
               value: 2.
               norm_class_idx: 0
               splits:
                  - { var:1, quality:2.9695652008056641e+01,
                      le:1.6340553760528564e-02 }
            -
               depth: 19
               value: 2.
               norm_class_idx: 0
            -
               depth: 19
               value: 2.
               norm_class_idx: 0
               splits:
                  - { var:1, quality:1.6882352828979492e+01,
                      le:1.7482947558164597e-02 }
            -
               depth: 20
               value: 4.
               norm_class_idx: 1
            -
               depth: 20
               value: 2.
               norm_class_idx: 0
            -
               depth: 18
               value: 4.
               norm_class_idx: 1
            -
               depth: 17
               value: 2.
               norm_class_idx: 0
               splits:
                  - { var:1, quality:32., le:2.2591022774577141e-02 }
            -
               depth: 18
               value: 2.
               norm_class_idx: 0
            -
               depth: 18
               value: 4.
               norm_class_idx: 1
            -
               depth: 15
               value: 2.
               norm_class_idx: 0
               splits:
                  - { var:4, quality:1.8018446350097656e+02,
                      le:6.0970258712768555e-01 }
            -
               depth: 16
               value: 4.
               norm_class_idx: 1
            -
               depth: 16
               value: 2.
               norm_class_idx: 0
               splits:
                  - { var:3, quality:1.7945314025878906e+02,
                      le:7.5943958945572376e-03 }
            -
               depth: 17
               value: 2.
               norm_class_idx: 0
               splits:
                  - { var:2, quality:3.3413791656494141e+01,
                      le:1.9393935799598694e-02 }
            -
               depth: 18
               value: 2.
               norm_class_idx: 0
            -
               depth: 18
               value: 2.
               norm_class_idx: 0
               splits:
                  - { var:2, quality:1.9666666030883789e+01,
                      le:1.9595626741647720e-02 }
            -
               depth: 19
               value: 4.
               norm_class_idx: 1
            -
               depth: 19
               value: 2.
               norm_class_idx: 0
               splits:
                  - { var:0, quality:1.9500000000000000e+01,
                      le:3.1455732882022858e-02 }
            -
               depth: 20
               value: 2.
               norm_class_idx: 0
            -
               depth: 20
               value: 2.
               norm_class_idx: 0
            -
               depth: 17
               value: 2.
               norm_class_idx: 0
               splits:
                  - { var:2, quality:1.4787579345703125e+02,
                      le:2.4215074256062508e-02 }
            -
               depth: 18
               value: 2.
               norm_class_idx: 0
               splits:
                  - { var:3, quality:1.2153845787048340e+01,
                      le:7.9848133027553558e-03 }
            -
               depth: 19
               value: 2.
               norm_class_idx: 0
            -
               depth: 19
               value: 2.
               norm_class_idx: 0
               splits:
                  - { var:1, quality:1.1666666984558105e+01,
                      le:1.7594434320926666e-02 }
            -
               depth: 20
               value: 2.
               norm_class_idx: 0
            -
               depth: 20
               value: 2.
               norm_class_idx: 0
            -
               depth: 18
               value: 2.
               norm_class_idx: 0
               splits:
                  - { var:5, quality:1.3693235778808594e+02,
                      le:-5.1266676187515259e-01 }
            -
               depth: 19
               value: 2.
               norm_class_idx: 0
            -
               depth: 19
               value: 2.
               norm_class_idx: 0
               splits:
                  - { var:3, quality:1.3046107482910156e+02,
                      le:1.2397456914186478e-02 }
            -
               depth: 20
               value: 2.
               norm_class_idx: 0
            -
               depth: 20
               value: 2.
               norm_class_idx: 0
            -
               depth: 13
               value: 4.
               norm_class_idx: 1
            -
               depth: 12
               value: 2.
               norm_class_idx: 0
               splits:
                  - { var:3, quality:7.5843338012695312e+01,
                      le:1.0247553698718548e-02 }
            -
               depth: 13
               value: 2.
               norm_class_idx: 0
               splits:
                  - { var:1, quality:3.6839214324951172e+01,
                      le:1.5422414988279343e-02 }
            -
               depth: 14
               value: 4.
               norm_class_idx: 1
               splits:
                  - { var:5, quality:1.3166666984558105e+01,
                      le:-1.2156716547906399e-04 }
            -
               depth: 15
               value: 4.
               norm_class_idx: 1
               splits:
                  - { var:4, quality:12., le:1.0110694169998169e+00 }
            -
               depth: 16
               value: 4.
               norm_class_idx: 1
            -
               depth: 16
               value: 2.
               norm_class_idx: 0
            -
               depth: 15
               value: 2.
               norm_class_idx: 0
            -
               depth: 14
               value: 2.
               norm_class_idx: 0
               splits:
                  - { var:0, quality:3.1421052932739258e+01,
                      le:3.8056273013353348e-02 }
            -
               depth: 15
               value: 2.
               norm_class_idx: 0
               splits:
                  - { var:4, quality:1.7111110687255859e+01,
                      le:8.7392508983612061e-01 }
            -
               depth: 16
               value: 4.
               norm_class_idx: 1
            -
               depth: 16
               value: 2.
               norm_class_idx: 0
               splits:
                  - { var:0, quality:17., le:3.4921534359455109e-02 }
            -
               depth: 17
               value: 2.
               norm_class_idx: 0
            -
               depth: 17
               value: 2.
               norm_class_idx: 0
            -
               depth: 15
               value: 2.
               norm_class_idx: 0
               splits:
                  - { var:5, quality:2.0266666412353516e+01,
                      le:-8.0879315733909607e-02 }
            -
               depth: 16
               value: 2.
               norm_class_idx: 0
               splits:
                  - { var:0, quality:1.3904762268066406e+01,
                      le:3.8904771208763123e-02 }
            -
               depth: 17
               value: 4.
               norm_class_idx: 1
            -
               depth: 17
               value: 2.
               norm_class_idx: 0
               splits:
                  - { var:4, quality:1.2666666984558105e+01,
                      le:8.9302992820739746e-01 }
            -
               depth: 18
               value: 4.
               norm_class_idx: 1
            -
               depth: 18
               value: 2.
               norm_class_idx: 0
            -
               depth: 16
               value: 4.
               norm_class_idx: 1
               splits:
                  - { var:2, quality:1.0181818008422852e+01,
                      le:2.3516912013292313e-02 }
            -
               depth: 17
               value: 2.
               norm_class_idx: 0
            -
               depth: 17
               value: 4.
               norm_class_idx: 1
               splits:
                  - { var:0, quality:9.6666669845581055e+00,
                      le:4.2063415050506592e-02 }
            -
               depth: 18
               value: 4.
               norm_class_idx: 1
            -
               depth: 18
               value: 4.
               norm_class_idx: 1
            -
               depth: 13
               value: 2.
               norm_class_idx: 0
               splits:
                  - { var:2, quality:45., le:3.2181065529584885e-02 }
            -
               depth: 14
               value: 2.
               norm_class_idx: 0
               splits:
                  - { var:1, quality:14., le:1.7757024616003036e-02 }
            -
               depth: 15
               value: 2.
               norm_class_idx: 0
            -
               depth: 15
               value: 4.
               norm_class_idx: 1
            -
               depth: 14
               value: 2.
               norm_class_idx: 0
            -
               depth: 11
               value: 2.
               norm_class_idx: 0
               splits:
                  - { var:5, quality:5.3461547851562500e+02,
                      le:-7.2588217258453369e-01 }
            -
               depth: 12
               value: 2.
               norm_class_idx: 0
               splits:
                  - { var:0, quality:2.4569882202148438e+02,
                      le:4.4145535677671432e-02 }
            -
               depth: 13
               value: 2.
               norm_class_idx: 0
               splits:
                  - { var:3, quality:4.8289474487304688e+01,
                      le:9.7098611295223236e-03 }
            -
               depth: 14
               value: 2.
               norm_class_idx: 0
               splits:
                  - { var:2, quality:48., le:3.7315443158149719e-02 }
            -
               depth: 15
               value: 2.
               norm_class_idx: 0
            -
               depth: 15
               value: 5.
               norm_class_idx: 2
            -
               depth: 14
               value: 4.
               norm_class_idx: 1
               splits:
                  - { var:1, quality:1.4309523582458496e+01,
                      le:2.4420797824859619e-02 }
            -
               depth: 15
               value: 2.
               norm_class_idx: 0
            -
               depth: 15
               value: 4.
               norm_class_idx: 1
               splits:
                  - { var:1, quality:1.0500000000000000e+01,
                      le:2.5400586426258087e-02 }
            -
               depth: 16
               value: 4.
               norm_class_idx: 1
            -
               depth: 16
               value: 4.
               norm_class_idx: 1
            -
               depth: 13
               value: 2.
               norm_class_idx: 0
               splits:
                  - { var:0, quality:2.0962500000000000e+02,
                      le:4.9001775681972504e-02 }
            -
               depth: 14
               value: 2.
               norm_class_idx: 0
            -
               depth: 14
               value: 2.
               norm_class_idx: 0
               splits:
                  - { var:1, quality:8.8523078918457031e+01,
                      le:2.6308847591280937e-02 }
            -
               depth: 15
               value: 2.
               norm_class_idx: 0
            -
               depth: 15
               value: 2.
               norm_class_idx: 0
               splits:
                  - { var:3, quality:4.7590164184570312e+01,
                      le:1.1360157281160355e-02 }
            -
               depth: 16
               value: 4.
               norm_class_idx: 1
            -
               depth: 16
               value: 2.
               norm_class_idx: 0
               splits:
                  - { var:4, quality:4.8709804534912109e+01,
                      le:3.5309737920761108e-01 }
            -
               depth: 17
               value: 2.
               norm_class_idx: 0
               splits:
                  - { var:0, quality:4.4255554199218750e+01,
                      le:5.0538577139377594e-02 }
            -
               depth: 18
               value: 2.
               norm_class_idx: 0
               splits:
                  - { var:2, quality:1.3500000000000000e+01,
                      le:4.3453544378280640e-02 }
            -
               depth: 19
               value: 4.
               norm_class_idx: 1
            -
               depth: 19
               value: 2.
               norm_class_idx: 0
            -
               depth: 18
               value: 2.
               norm_class_idx: 0
               splits:
                  - { var:2, quality:3.4500000000000000e+01,
                      le:3.7437580525875092e-02 }
            -
               depth: 19
               value: 2.
               norm_class_idx: 0
            -
               depth: 19
               value: 2.
               norm_class_idx: 0
            -
               depth: 17
               value: 5.
               norm_class_idx: 2
            -
               depth: 12
               value: 2.
               norm_class_idx: 0
               splits:
                  - { var:2, quality:2.9328082275390625e+02,
                      le:4.1080303490161896e-02 }
            -
               depth: 13
               value: 2.
               norm_class_idx: 0
               splits:
                  - { var:5, quality:2.6214080810546875e+02,
                      le:-5.5859047174453735e-01 }
            -
               depth: 14
               value: 2.
               norm_class_idx: 0
               splits:
                  - { var:5, quality:5.9033332824707031e+01,
                      le:-5.6739389896392822e-01 }
            -
               depth: 15
               value: 2.
               norm_class_idx: 0
               splits:
                  - { var:5, quality:5.8142856597900391e+01,
                      le:-6.3764536380767822e-01 }
            -
               depth: 16
               value: 2.
               norm_class_idx: 0
            -
               depth: 16
               value: 2.
               norm_class_idx: 0
               splits:
                  - { var:5, quality:14., le:-6.3580435514450073e-01 }
            -
               depth: 17
               value: 4.
               norm_class_idx: 1
            -
               depth: 17
               value: 2.
               norm_class_idx: 0
            -
               depth: 15
               value: 4.
               norm_class_idx: 1
            -
               depth: 14
               value: 2.
               norm_class_idx: 0
               splits:
                  - { var:0, quality:2.0504167175292969e+02,
                      le:5.0496332347393036e-02 }
            -
               depth: 15
               value: 2.
               norm_class_idx: 0
            -
               depth: 15
               value: 2.
               norm_class_idx: 0
               splits:
                  - { var:3, quality:4.6222221374511719e+01,
                      le:1.0348048992455006e-02 }
            -
               depth: 16
               value: 2.
               norm_class_idx: 0
            -
               depth: 16
               value: 2.
               norm_class_idx: 0
            -
               depth: 13
               value: 2.
               norm_class_idx: 0
               splits:
                  - { var:2, quality:35., le:4.1353508830070496e-02 }
            -
               depth: 14
               value: 5.
               norm_class_idx: 2
            -
               depth: 14
               value: 2.
               norm_class_idx: 0
            -
               depth: 6
               value: 2.
               norm_class_idx: 0
               splits:
                  - { var:5, quality:2.2235931396484375e+02,
                      le:-9.5717179775238037e-01 }
            -
               depth: 7
               value: 5.
               norm_class_idx: 2
               splits:
                  - { var:1, quality:2.9520000457763672e+01,
                      le:3.2482147216796875e-02 }
            -
               depth: 8
               value: 2.
               norm_class_idx: 0
               splits:
                  - { var:4, quality:25., le:3.3143979310989380e-01 }
            -
               depth: 9
               value: 2.
               norm_class_idx: 0
            -
               depth: 9
               value: 5.
               norm_class_idx: 2
            -
               depth: 8
               value: 5.
               norm_class_idx: 2
            -
               depth: 7
               value: 2.
               norm_class_idx: 0
               splits:
                  - { var:2, quality:2.0483041381835938e+02,
                      le:3.9539188146591187e-02 }
            -
               depth: 8
               value: 2.
               norm_class_idx: 0
               splits:
                  - { var:2, quality:5.1505493164062500e+01,
                      le:3.9414525032043457e-02 }
            -
               depth: 9
               value: 2.
               norm_class_idx: 0
               splits:
                  - { var:0, quality:5.8500000000000000e+01,
                      le:5.3554408252239227e-02 }
            -
               depth: 10
               value: 4.
               norm_class_idx: 1
            -
               depth: 10
               value: 2.
               norm_class_idx: 0
               splits:
                  - { var:0, quality:5.6904762268066406e+01,
                      le:6.0190547257661819e-02 }
            -
               depth: 11
               value: 2.
               norm_class_idx: 0
               splits:
                  - { var:3, quality:4.9684211730957031e+01,
                      le:1.3594573363661766e-02 }
            -
               depth: 12
               value: 2.
               norm_class_idx: 0
            -
               depth: 12
               value: 2.
               norm_class_idx: 0
               splits:
                  - { var:3, quality:1.7125000000000000e+01,
                      le:1.3666395097970963e-02 }
            -
               depth: 13
               value: 5.
               norm_class_idx: 2
            -
               depth: 13
               value: 2.
               norm_class_idx: 0
               splits:
                  - { var:3, quality:1.4666666984558105e+01,
                      le:1.3725347816944122e-02 }
            -
               depth: 14
               value: 2.
               norm_class_idx: 0
            -
               depth: 14
               value: 2.
               norm_class_idx: 0
            -
               depth: 11
               value: 4.
               norm_class_idx: 1
               splits:
                  - { var:1, quality:1.2355555534362793e+01,
                      le:2.8242882341146469e-02 }
            -
               depth: 12
               value: 4.
               norm_class_idx: 1
               splits:
                  - { var:2, quality:11., le:3.8713976740837097e-02 }
            -
               depth: 13
               value: 2.
               norm_class_idx: 0
            -
               depth: 13
               value: 4.
               norm_class_idx: 1
            -
               depth: 12
               value: 5.
               norm_class_idx: 2
            -
               depth: 9
               value: 4.
               norm_class_idx: 1
            -
               depth: 8
               value: 2.
               norm_class_idx: 0
               splits:
                  - { var:2, quality:1.6134027099609375e+02,
                      le:4.2447835206985474e-02 }
            -
               depth: 9
               value: 2.
               norm_class_idx: 0
               splits:
                  - { var:2, quality:8.9126853942871094e+01,
                      le:4.2209275066852570e-02 }
            -
               depth: 10
               value: 2.
               norm_class_idx: 0
               splits:
                  - { var:4, quality:8.5428573608398438e+01,
                      le:-3.5921472311019897e-01 }
            -
               depth: 11
               value: 5.
               norm_class_idx: 2
            -
               depth: 11
               value: 2.
               norm_class_idx: 0
               splits:
                  - { var:2, quality:8.5173011779785156e+01,
                      le:4.1099250316619873e-02 }
            -
               depth: 12
               value: 2.
               norm_class_idx: 0
               splits:
                  - { var:2, quality:5.3666667938232422e+01,
                      le:4.0255136787891388e-02 }
            -
               depth: 13
               value: 2.
               norm_class_idx: 0
            -
               depth: 13
               value: 2.
               norm_class_idx: 0
               splits:
                  - { var:2, quality:27., le:4.0367923676967621e-02 }
            -
               depth: 14
               value: 4.
               norm_class_idx: 1
            -
               depth: 14
               value: 2.
               norm_class_idx: 0
            -
               depth: 12
               value: 2.
               norm_class_idx: 0
               splits:
                  - { var:2, quality:4.2347827911376953e+01,
                      le:4.1251622140407562e-02 }
            -
               depth: 13
               value: 5.
               norm_class_idx: 2
            -
               depth: 13
               value: 2.
               norm_class_idx: 0
               splits:
                  - { var:5, quality:3.7111110687255859e+01,
                      le:8.4985747933387756e-02 }
            -
               depth: 14
               value: 2.
               norm_class_idx: 0
               splits:
                  - { var:3, quality:37., le:1.5210024081170559e-02 }
            -
               depth: 15
               value: 2.
               norm_class_idx: 0
               splits:
                  - { var:0, quality:1.9880952835083008e+01,
                      le:5.7103335857391357e-02 }
            -
               depth: 16
               value: 4.
               norm_class_idx: 1
            -
               depth: 16
               value: 2.
               norm_class_idx: 0
               splits:
                  - { var:0, quality:1.9100000381469727e+01,
                      le:6.8785533308982849e-02 }
            -
               depth: 17
               value: 2.
               norm_class_idx: 0
               splits:
                  - { var:0, quality:1.8399999618530273e+01,
                      le:6.5828457474708557e-02 }
            -
               depth: 18
               value: 2.
               norm_class_idx: 0
            -
               depth: 18
               value: 2.
               norm_class_idx: 0
            -
               depth: 17
               value: 4.
               norm_class_idx: 1
            -
               depth: 15
               value: 2.
               norm_class_idx: 0
            -
               depth: 14
               value: 5.
               norm_class_idx: 2
            -
               depth: 10
               value: 4.
               norm_class_idx: 1
               splits:
                  - { var:5, quality:9.8000001907348633e+00,
                      le:-5.8100932836532593e-01 }
            -
               depth: 11
               value: 4.
               norm_class_idx: 1
            -
               depth: 11
               value: 2.
               norm_class_idx: 0
            -
               depth: 9
               value: 2.
               norm_class_idx: 0
               splits:
                  - { var:3, quality:8.0250000000000000e+01,
                      le:1.8001578748226166e-02 }
            -
               depth: 10
               value: 2.
               norm_class_idx: 0
            -
               depth: 10
               value: 2.
               norm_class_idx: 0
            -
               depth: 5
               value: 2.
               norm_class_idx: 0
               splits:
                  - { var:0, quality:1.9892365722656250e+03,
                      le:1.9601885229349136e-02 }
            -
               depth: 6
               value: 2.
               norm_class_idx: 0
               splits:
                  - { var:4, quality:2.0212500000000000e+02,
                      le:5.2279758453369141e-01 }
            -
               depth: 7
               value: 2.
               norm_class_idx: 0
               splits:
                  - { var:1, quality:16., le:9.5091108232736588e-03 }
            -
               depth: 8
               value: 4.
               norm_class_idx: 1
            -
               depth: 8
               value: 2.
               norm_class_idx: 0
            -
               depth: 7
               value: 2.
               norm_class_idx: 0
            -
               depth: 6
               value: 2.
               norm_class_idx: 0
               splits:
                  - { var:3, quality:1.8351069335937500e+03,
                      le:3.7074319552630186e-03 }
            -
               depth: 7
               value: 4.
               norm_class_idx: 1
               splits:
                  - { var:3, quality:42., le:3.5386660601943731e-03 }
            -
               depth: 8
               value: 4.
               norm_class_idx: 1
            -
               depth: 8
               value: 4.
               norm_class_idx: 1
               splits:
                  - { var:3, quality:2.1898038864135742e+01,
                      le:3.6481334827840328e-03 }
            -
               depth: 9
               value: 4.
               norm_class_idx: 1
               splits:
                  - { var:4, quality:1.5250000000000000e+01,
                      le:6.7987370491027832e-01 }
            -
               depth: 10
               value: 2.
               norm_class_idx: 0
            -
               depth: 10
               value: 4.
               norm_class_idx: 1
            -
               depth: 9
               value: 4.
               norm_class_idx: 1
               splits:
                  - { var:5, quality:15., le:1.5241385996341705e-01 }
            -
               depth: 10
               value: 2.
               norm_class_idx: 0
            -
               depth: 10
               value: 4.
               norm_class_idx: 1
            -
               depth: 7
               value: 2.
               norm_class_idx: 0
               splits:
                  - { var:2, quality:1.8244593505859375e+03,
                      le:1.4297653920948505e-02 }
            -
               depth: 8
               value: 2.
               norm_class_idx: 0
               splits:
                  - { var:0, quality:4.7648690795898438e+02,
                      le:1.9748177379369736e-02 }
            -
               depth: 9
               value: 4.
               norm_class_idx: 1
            -
               depth: 9
               value: 2.
               norm_class_idx: 0
               splits:
                  - { var:2, quality:4.7587329101562500e+02,
                      le:1.3060476630926132e-02 }
            -
               depth: 10
               value: 2.
               norm_class_idx: 0
               splits:
                  - { var:5, quality:3.3513635253906250e+02,
                      le:1.0070692300796509e+00 }
            -
               depth: 11
               value: 2.
               norm_class_idx: 0
               splits:
                  - { var:1, quality:1.2634615325927734e+02,
                      le:9.8556922748684883e-03 }
            -
               depth: 12
               value: 2.
               norm_class_idx: 0
            -
               depth: 12
               value: 2.
               norm_class_idx: 0
               splits:
                  - { var:5, quality:5.0040000915527344e+01,
                      le:9.8882591724395752e-01 }
            -
               depth: 13
               value: 2.
               norm_class_idx: 0
               splits:
                  - { var:0, quality:4.8400001525878906e+01,
                      le:2.0364332944154739e-02 }
            -
               depth: 14
               value: 2.
               norm_class_idx: 0
            -
               depth: 14
               value: 2.
               norm_class_idx: 0
            -
               depth: 13
               value: 4.
               norm_class_idx: 1
            -
               depth: 11
               value: 2.
               norm_class_idx: 0
            -
               depth: 10
               value: 2.
               norm_class_idx: 0
               splits:
                  - { var:2, quality:1.4661192321777344e+02,
                      le:1.3173975050449371e-02 }
            -
               depth: 11
               value: 4.
               norm_class_idx: 1
            -
               depth: 11
               value: 2.
               norm_class_idx: 0
               splits:
                  - { var:1, quality:1.4350459289550781e+02,
                      le:1.1766607873141766e-02 }
            -
               depth: 12
               value: 2.
               norm_class_idx: 0
               splits:
                  - { var:3, quality:1.2918319702148438e+02,
                      le:4.1794432327151299e-03 }
            -
               depth: 13
               value: 2.
               norm_class_idx: 0
               splits:
                  - { var:2, quality:12., le:1.3362562283873558e-02 }
            -
               depth: 14
               value: 4.
               norm_class_idx: 1
            -
               depth: 14
               value: 2.
               norm_class_idx: 0
            -
               depth: 13
               value: 2.
               norm_class_idx: 0
               splits:
                  - { var:3, quality:1.1904878234863281e+02,
                      le:5.1729087717831135e-03 }
            -
               depth: 14
               value: 2.
               norm_class_idx: 0
               splits:
                  - { var:2, quality:3.9333332061767578e+01,
                      le:1.4017347246408463e-02 }
            -
               depth: 15
               value: 2.
               norm_class_idx: 0
            -
               depth: 15
               value: 2.
               norm_class_idx: 0
            -
               depth: 14
               value: 2.
               norm_class_idx: 0
            -
               depth: 12
               value: 2.
               norm_class_idx: 0
               splits:
                  - { var:4, quality:18., le:1.2643439769744873e+00 }
            -
               depth: 13
               value: 2.
               norm_class_idx: 0
            -
               depth: 13
               value: 4.
               norm_class_idx: 1
            -
               depth: 8
               value: 2.
               norm_class_idx: 0
               splits:
                  - { var:0, quality:1.3652797851562500e+03,
                      le:2.3979689925909042e-02 }
            -
               depth: 9
               value: 4.
               norm_class_idx: 1
               splits:
                  - { var:4, quality:4.9223682403564453e+01,
                      le:1.1726737022399902e+00 }
            -
               depth: 10
               value: 2.
               norm_class_idx: 0
               splits:
                  - { var:1, quality:3.7897960662841797e+01,
                      le:1.2735791504383087e-02 }
            -
               depth: 11
               value: 2.
               norm_class_idx: 0
               splits:
                  - { var:3, quality:4.1837608337402344e+01,
                      le:4.4203954748809338e-03 }
            -
               depth: 12
               value: 4.
               norm_class_idx: 1
               splits:
                  - { var:5, quality:13., le:6.5387332439422607e-01 }
            -
               depth: 13
               value: 4.
               norm_class_idx: 1
            -
               depth: 13
               value: 2.
               norm_class_idx: 0
            -
               depth: 12
               value: 2.
               norm_class_idx: 0
               splits:
                  - { var:3, quality:3.3142856597900391e+01,
                      le:5.1412638276815414e-03 }
            -
               depth: 13
               value: 2.
               norm_class_idx: 0
            -
               depth: 13
               value: 2.
               norm_class_idx: 0
            -
               depth: 11
               value: 4.
               norm_class_idx: 1
            -
               depth: 10
               value: 4.
               norm_class_idx: 1
               splits:
                  - { var:2, quality:21., le:1.4484405517578125e-02 }
            -
               depth: 11
               value: 2.
               norm_class_idx: 0
            -
               depth: 11
               value: 4.
               norm_class_idx: 1
            -
               depth: 9
               value: 2.
               norm_class_idx: 0
               splits:
                  - { var:1, quality:1.3343787841796875e+03,
                      le:2.1639665588736534e-02 }
            -
               depth: 10
               value: 2.
               norm_class_idx: 0
               splits:
                  - { var:0, quality:9.4809100341796875e+02,
                      le:5.3173735737800598e-02 }
            -
               depth: 11
               value: 2.
               norm_class_idx: 0
               splits:
                  - { var:2, quality:8.5499017333984375e+02,
                      le:1.5855524688959122e-02 }
            -
               depth: 12
               value: 2.
               norm_class_idx: 0
               splits:
                  - { var:2, quality:1.0822856903076172e+02,
                      le:1.5434103086590767e-02 }
            -
               depth: 13
               value: 2.
               norm_class_idx: 0
            -
               depth: 13
               value: 2.
               norm_class_idx: 0
               splits:
                  - { var:2, quality:3.3058822631835938e+01,
                      le:1.5484234318137169e-02 }
            -
               depth: 14
               value: 4.
               norm_class_idx: 1
            -
               depth: 14
               value: 2.
               norm_class_idx: 0
               splits:
                  - { var:3, quality:3.2400001525878906e+01,
                      le:4.8078019171953201e-03 }
            -
               depth: 15
               value: 2.
               norm_class_idx: 0
            -
               depth: 15
               value: 2.
               norm_class_idx: 0
            -
               depth: 12
               value: 2.
               norm_class_idx: 0
               splits:
                  - { var:3, quality:7.6854125976562500e+02,
                      le:5.3406036458909512e-03 }
            -
               depth: 13
               value: 4.
               norm_class_idx: 1
               splits:
                  - { var:3, quality:5.3355201721191406e+01,
                      le:4.9620335921645164e-03 }
            -
               depth: 14
               value: 2.
               norm_class_idx: 0
               splits:
                  - { var:2, quality:3.7500000000000000e+01,
                      le:1.6751891002058983e-02 }
            -
               depth: 15
               value: 4.
               norm_class_idx: 1
               splits:
                  - { var:4, quality:1.7142856597900391e+01,
                      le:1.1044354438781738e+00 }
            -
               depth: 16
               value: 2.
               norm_class_idx: 0
            -
               depth: 16
               value: 4.
               norm_class_idx: 1
            -
               depth: 15
               value: 2.
               norm_class_idx: 0
               splits:
                  - { var:1, quality:2.5882352828979492e+01,
                      le:1.4583338983356953e-02 }
            -
               depth: 16
               value: 2.
               norm_class_idx: 0
               splits:
                  - { var:5, quality:1.3571428298950195e+01,
                      le:8.5548150539398193e-01 }
            -
               depth: 17
               value: 4.
               norm_class_idx: 1
            -
               depth: 17
               value: 2.
               norm_class_idx: 0
            -
               depth: 16
               value: 2.
               norm_class_idx: 0
            -
               depth: 14
               value: 4.
               norm_class_idx: 1
               splits:
                  - { var:2, quality:2.8766666412353516e+01,
                      le:1.8948998302221298e-02 }
            -
               depth: 15
               value: 4.
               norm_class_idx: 1
               splits:
                  - { var:0, quality:2.8068965911865234e+01,
                      le:2.5893401354551315e-02 }
            -
               depth: 16
               value: 2.
               norm_class_idx: 0
            -
               depth: 16
               value: 4.
               norm_class_idx: 1
               splits:
                  - { var:0, quality:29., le:3.1609252095222473e-02 }
            -
               depth: 17
               value: 4.
               norm_class_idx: 1
            -
               depth: 17
               value: 2.
               norm_class_idx: 0
            -
               depth: 15
               value: 2.
               norm_class_idx: 0
            -
               depth: 13
               value: 2.
               norm_class_idx: 0
               splits:
                  - { var:5, quality:7.3097888183593750e+02,
                      le:3.7143874168395996e-01 }
            -
               depth: 14
               value: 2.
               norm_class_idx: 0
               splits:
                  - { var:5, quality:9.4470588684082031e+01,
                      le:3.6352282762527466e-01 }
            -
               depth: 15
               value: 2.
               norm_class_idx: 0
               splits:
                  - { var:3, quality:9.3331710815429688e+01,
                      le:6.3257291913032532e-03 }
            -
               depth: 16
               value: 2.
               norm_class_idx: 0
               splits:
                  - { var:0, quality:28., le:2.8200998902320862e-02 }
            -
               depth: 17
               value: 2.
               norm_class_idx: 0
            -
               depth: 17
               value: 2.
               norm_class_idx: 0
            -
               depth: 16
               value: 2.
               norm_class_idx: 0
               splits:
                  - { var:1, quality:7.1560745239257812e+01,
                      le:1.4292573556303978e-02 }
            -
               depth: 17
               value: 2.
               norm_class_idx: 0
            -
               depth: 17
               value: 2.
               norm_class_idx: 0
               splits:
                  - { var:4, quality:6.9488952636718750e+01,
                      le:9.1571396589279175e-01 }
            -
               depth: 18
               value: 2.
               norm_class_idx: 0
               splits:
                  - { var:0, quality:5.6285713195800781e+01,
                      le:3.3747438341379166e-02 }
            -
               depth: 19
               value: 4.
               norm_class_idx: 1
               splits:
                  - { var:0, quality:1.2166666984558105e+01,
                      le:3.1915046274662018e-02 }
            -
               depth: 20
               value: 2.
               norm_class_idx: 0
            -
               depth: 20
               value: 4.
               norm_class_idx: 1
            -
               depth: 19
               value: 2.
               norm_class_idx: 0
            -
               depth: 18
               value: 4.
               norm_class_idx: 1
               splits:
                  - { var:0, quality:3.0623781204223633e+01,
                      le:3.6787342280149460e-02 }
            -
               depth: 19
               value: 4.
               norm_class_idx: 1
               splits:
                  - { var:1, quality:19., le:1.7902527004480362e-02 }
            -
               depth: 20
               value: 4.
               norm_class_idx: 1
            -
               depth: 20
               value: 2.
               norm_class_idx: 0
            -
               depth: 19
               value: 4.
               norm_class_idx: 1
               splits:
                  - { var:1, quality:2.1700000762939453e+01,
                      le:1.8596597015857697e-02 }
            -
               depth: 20
               value: 2.
               norm_class_idx: 0
            -
               depth: 20
               value: 4.
               norm_class_idx: 1
            -
               depth: 15
               value: 4.
               norm_class_idx: 1
            -
               depth: 14
               value: 2.
               norm_class_idx: 0
               splits:
                  - { var:1, quality:6.4797662353515625e+02,
                      le:1.1750809848308563e-02 }
            -
               depth: 15
               value: 2.
               norm_class_idx: 0
               splits:
                  - { var:0, quality:1.3006015014648438e+02,
                      le:2.5273527950048447e-02 }
            -
               depth: 16
               value: 2.
               norm_class_idx: 0
            -
               depth: 16
               value: 2.
               norm_class_idx: 0
               splits:
                  - { var:3, quality:133., le:5.3783087059855461e-03 }
            -
               depth: 17
               value: 4.
               norm_class_idx: 1
            -
               depth: 17
               value: 2.
               norm_class_idx: 0
            -
               depth: 15
               value: 2.
               norm_class_idx: 0
               splits:
                  - { var:0, quality:5.3796044921875000e+02,
                      le:3.5345070064067841e-02 }
            -
               depth: 16
               value: 2.
               norm_class_idx: 0
               splits:
                  - { var:2, quality:1.8449017333984375e+02,
                      le:2.1536335349082947e-02 }
            -
               depth: 17
               value: 2.
               norm_class_idx: 0
               splits:
                  - { var:4, quality:1.5116174316406250e+02,
                      le:1.4759659767150879e+00 }
            -
               depth: 18
               value: 2.
               norm_class_idx: 0
               splits:
                  - { var:5, quality:1.3516049194335938e+02,
                      le:2.3515667915344238e+00 }
            -
               depth: 19
               value: 2.
               norm_class_idx: 0
               splits:
                  - { var:2, quality:1.3497322082519531e+02,
                      le:1.8784221261739731e-02 }
            -
               depth: 20
               value: 2.
               norm_class_idx: 0
            -
               depth: 20
               value: 2.
               norm_class_idx: 0
            -
               depth: 19
               value: 4.
               norm_class_idx: 1
            -
               depth: 18
               value: 4.
               norm_class_idx: 1
               splits:
                  - { var:3, quality:2.5811447143554688e+01,
                      le:6.4409691840410233e-03 }
            -
               depth: 19
               value: 4.
               norm_class_idx: 1
               splits:
                  - { var:2, quality:1.9670454025268555e+01,
                      le:1.9082946702837944e-02 }
            -
               depth: 20
               value: 4.
               norm_class_idx: 1
            -
               depth: 20
               value: 2.
               norm_class_idx: 0
            -
               depth: 19
               value: 2.
               norm_class_idx: 0
               splits:
                  - { var:2, quality:11., le:2.0540207624435425e-02 }
            -
               depth: 20
               value: 2.
               norm_class_idx: 0
            -
               depth: 20
               value: 4.
               norm_class_idx: 1
            -
               depth: 17
               value: 4.
               norm_class_idx: 1
               splits:
                  - { var:4, quality:5.5793651580810547e+01,
                      le:8.2556962966918945e-01 }
            -
               depth: 18
               value: 2.
               norm_class_idx: 0
            -
               depth: 18
               value: 4.
               norm_class_idx: 1
               splits:
                  - { var:3, quality:5.4037734985351562e+01,
                      le:7.5612263754010201e-03 }
            -
               depth: 19
               value: 4.
               norm_class_idx: 1
               splits:
                  - { var:2, quality:5.1166667938232422e+01,
                      le:2.1859252825379372e-02 }
            -
               depth: 20
               value: 4.
               norm_class_idx: 1
            -
               depth: 20
               value: 4.
               norm_class_idx: 1
            -
               depth: 19
               value: 2.
               norm_class_idx: 0
            -
               depth: 16
               value: 2.
               norm_class_idx: 0
               splits:
                  - { var:2, quality:3.9457907104492188e+02,
                      le:3.2510966062545776e-02 }
            -
               depth: 17
               value: 2.
               norm_class_idx: 0
               splits:
                  - { var:0, quality:3.8082812500000000e+02,
                      le:4.2023800313472748e-02 }
            -
               depth: 18
               value: 2.
               norm_class_idx: 0
               splits:
                  - { var:2, quality:1.6173695373535156e+02,
                      le:2.6535190641880035e-02 }
            -
               depth: 19
               value: 2.
               norm_class_idx: 0
               splits:
                  - { var:5, quality:1.4554524230957031e+02,
                      le:2.9856855869293213e+00 }
            -
               depth: 20
               value: 2.
               norm_class_idx: 0
            -
               depth: 20
               value: 2.
               norm_class_idx: 0
            -
               depth: 19
               value: 2.
               norm_class_idx: 0
               splits:
                  - { var:2, quality:3.0692308425903320e+01,
                      le:2.6615310460329056e-02 }
            -
               depth: 20
               value: 4.
               norm_class_idx: 1
            -
               depth: 20
               value: 2.
               norm_class_idx: 0
            -
               depth: 18
               value: 2.
               norm_class_idx: 0
               splits:
                  - { var:1, quality:2.2385662841796875e+02,
                      le:1.3038570061326027e-02 }
            -
               depth: 19
               value: 2.
               norm_class_idx: 0
               splits:
                  - { var:0, quality:9.5000000000000000e+00,
                      le:4.4039100408554077e-02 }
            -
               depth: 20
               value: 4.
               norm_class_idx: 1
            -
               depth: 20
               value: 2.
               norm_class_idx: 0
            -
               depth: 19
               value: 2.
               norm_class_idx: 0
               splits:
                  - { var:4, quality:2.1755630493164062e+02,
                      le:1.9129431247711182e+00 }
            -
               depth: 20
               value: 2.
               norm_class_idx: 0
            -
               depth: 20
               value: 2.
               norm_class_idx: 0
            -
               depth: 17
               value: 2.
               norm_class_idx: 0
               splits:
                  - { var:5, quality:2.0090909957885742e+01,
                      le:6.0528612136840820e-01 }
            -
               depth: 18
               value: 2.
               norm_class_idx: 0
            -
               depth: 18
               value: 2.
               norm_class_idx: 0
               splits:
                  - { var:3, quality:2.0181818008422852e+01,
                      le:1.1260664090514183e-02 }
            -
               depth: 19
               value: 4.
               norm_class_idx: 1
               splits:
                  - { var:3, quality:9.3999996185302734e+00,
                      le:1.1186452582478523e-02 }
            -
               depth: 20
               value: 4.
               norm_class_idx: 1
